{"learner":{"attributes":{"scikit_learn":"{\"_estimator_type\": \"regressor\"}"},"feature_names":["Disease Status","Cytogenetic Score","Year of HCT","Age at HCT","Gender","Race/Ethnicity","Karnofsky Score","HCT-CI","Time Dx to HCT","Immunophenotype","Ph+/BCR-ABL1","Donor Type","Donor Age","Donor/Recipient Sex Match","Donor/Recipient CMV","Graft Type","Conditioning Regimen","GVHD Prophylaxis","In Vivo T-cell Depletion (Yes)"],"feature_types":["int","int","int","int","int","int","float","float","int","int","int","int","float","int","int","int","int","int","int"],"gradient_booster":{"model":{"cats":{"enc":[],"feature_segments":[],"sorted_idx":[]},"gbtree_model_param":{"num_parallel_tree":"1","num_trees":"100"},"iteration_indptr":[0,1,2,3,4,5,6,7,8,9,10,11,12,13,14,15,16,17,18,19,20,21,22,23,24,25,26,27,28,29,30,31,32,33,34,35,36,37,38,39,40,41,42,43,44,45,46,47,48,49,50,51,52,53,54,55,56,57,58,59,60,61,62,63,64,65,66,67,68,69,70,71,72,73,74,75,76,77,78,79,80,81,82,83,84,85,86,87,88,89,90,91,92,93,94,95,96,97,98,99,100],"tree_info":[0,0,0,0,0,0,0,0,0,0,0,0,0,0,0,0,0,0,0,0,0,0,0,0,0,0,0,0,0,0,0,0,0,0,0,0,0,0,0,0,0,0,0,0,0,0,0,0,0,0,0,0,0,0,0,0,0,0,0,0,0,0,0,0,0,0,0,0,0,0,0,0,0,0,0,0,0,0,0,0,0,0,0,0,0,0,0,0,0,0,0,0,0,0,0,0,0,0,0,0],"trees":[{"base_weights":[-2.2308638E-3,1.0058389E-1,-3.354656E-1,1.4905782E-1,-5.5431213E-2,-2.328847E-1,-6.272698E-1,9.009139E-3,-1.0406479E-3,-1.47954365E-2,-1.8892715E-6,-2.8711885E-2,-8.371928E-3,-1.0462399E-1,-2.92422E-2],"categories":[],"categories_nodes":[],"categories_segments":[],"categories_sizes":[],"default_left":[0,0,0,0,0,0,0,0,0,0,0,0,0,0,0],"id":0,"left_children":[1,3,5,7,9,11,13,-1,-1,-1,-1,-1,-1,-1,-1],"loss_changes":[1.2714372E2,2.1455975E1,2.6045761E1,1.1445293E1,8.964937E0,1.4402668E1,1.2887161E1,0E0,0E0,0E0,0E0,0E0,0E0,0E0,0E0],"parents":[2147483647,0,0,1,1,2,2,3,3,4,4,5,5,6,6],"right_children":[2,4,6,8,10,12,14,-1,-1,-1,-1,-1,-1,-1,-1],"split_conditions":[3E0,2.017E3,5.3E1,1E0,2E0,2E0,2.012E3,9.009139E-3,-1.0406479E-3,-1.47954365E-2,-1.8892715E-6,-2.8711885E-2,-8.371928E-3,-1.0462399E-1,-2.92422E-2],"split_indices":[0,2,3,9,15,8,2,0,0,0,0,0,0,0,0],"split_type":[0,0,0,0,0,0,0,0,0,0,0,0,0,0,0],"sum_hessian":[3.709E3,2.835E3,8.74E2,2.163E3,6.72E2,6.48E2,2.26E2,1.828E3,3.35E2,1.25E2,5.47E2,1.03E2,5.45E2,5E0,2.21E2],"tree_param":{"num_deleted":"0","num_feature":"19","num_nodes":"15","size_leaf_vector":"1"}},{"base_weights":[1.1109128E-3,9.408057E-2,-2.9394057E-1,1.3669622E-1,-4.3633766E-2,-1.914267E-1,-4.7857353E-1,9.596644E-3,3.0536994E-3,-1.36286905E-2,5.6709413E-4,-3.9496957E-3,-1.8887501E-2,-6.5222196E-3,-2.8066996E-2],"categories":[],"categories_nodes":[],"categories_segments":[],"categories_sizes":[],"default_left":[0,0,0,0,0,0,0,0,0,0,0,0,0,0,0],"id":1,"left_children":[1,3,5,7,9,11,13,-1,-1,-1,-1,-1,-1,-1,-1],"loss_changes":[1.01549164E2,1.6526602E1,1.6697037E1,8.969078E0,8.385452E0,1.19529E1,9.031815E0,0E0,0E0,0E0,0E0,0E0,0E0,0E0,0E0],"parents":[2147483647,0,0,1,1,2,2,3,3,4,4,5,5,6,6],"right_children":[2,4,6,8,10,12,14,-1,-1,-1,-1,-1,-1,-1,-1],"split_conditions":[3E0,2.017E3,4.6E1,1E0,2E0,3E0,1E0,9.596644E-3,3.0536994E-3,-1.36286905E-2,5.6709413E-4,-3.9496957E-3,-1.8887501E-2,-6.5222196E-3,-2.8066996E-2],"split_indices":[0,2,3,8,15,7,16,0,0,0,0,0,0,0,0],"split_type":[0,0,0,0,0,0,0,0,0,0,0,0,0,0,0],"sum_hessian":[3.7E3,2.814E3,8.86E2,2.149E3,6.65E2,5.71E2,3.15E2,1.241E3,9.08E2,1.28E2,5.37E2,3.57E2,2.14E2,6.1E1,2.54E2],"tree_param":{"num_deleted":"0","num_feature":"19","num_nodes":"15","size_leaf_vector":"1"}},{"base_weights":[-1.5569168E-2,8.0825195E-2,-2.543437E-1,1.198785E-1,-4.255337E-2,-1.7386776E-1,-4.768073E-1,1.1149473E-2,3.0306377E-3,-5.61234E-3,3.836127E-3,-5.042967E-3,-1.5228267E-2,-3.0698676E-2,-1.4688055E-2],"categories":[],"categories_nodes":[],"categories_segments":[],"categories_sizes":[],"default_left":[0,0,0,0,0,0,0,0,0,0,0,0,0,0,0],"id":2,"left_children":[1,3,5,7,9,11,13,-1,-1,-1,-1,-1,-1,-1,-1],"loss_changes":[8.603329E1,1.2836342E1,1.9162788E1,1.234893E1,5.337082E0,7.517023E0,6.9753494E0,0E0,0E0,0E0,0E0,0E0,0E0,0E0,0E0],"parents":[2147483647,0,0,1,1,2,2,3,3,4,4,5,5,6,6],"right_children":[2,4,6,8,10,12,14,-1,-1,-1,-1,-1,-1,-1,-1],"split_conditions":[2E0,2.017E3,5.3E1,2.9E1,4E0,3.2E1,2E0,1.1149473E-2,3.0306377E-3,-5.61234E-3,3.836127E-3,-5.042967E-3,-1.5228267E-2,-3.0698676E-2,-1.4688055E-2],"split_indices":[0,2,3,12,5,12,10,0,0,0,0,0,0,0,0],"split_type":[0,0,0,0,0,0,0,0,0,0,0,0,0,0,0],"sum_hessian":[3.736E3,2.662E3,1.074E3,2.022E3,6.4E2,7.9E2,2.84E2,7.37E2,1.285E3,4.04E2,2.36E2,5.08E2,2.82E2,1.61E2,1.23E2],"tree_param":{"num_deleted":"0","num_feature":"19","num_nodes":"15","size_leaf_vector":"1"}},{"base_weights":[1.447836E-3,9.970887E-2,-2.49841E-1,1.4220288E-1,-3.0675212E-2,1.3979798E-2,-3.1976712E-1,1.3522207E-3,1.0441455E-2,-1.5172149E-2,1.7199591E-3,1.2811151E-2,-2.4527526E-3,-2.5039125E-2,-1.03904195E-2],"categories":[],"categories_nodes":[],"categories_segments":[],"categories_sizes":[],"default_left":[0,0,0,0,0,0,0,0,0,0,0,0,0,0,0],"id":3,"left_children":[1,3,5,7,9,11,13,-1,-1,-1,-1,-1,-1,-1,-1],"loss_changes":[9.266893E1,1.4952747E1,1.9467072E1,1.5608036E1,1.1796569E1,3.402457E0,1.6797981E1,0E0,0E0,0E0,0E0,0E0,0E0,0E0,0E0],"parents":[2147483647,0,0,1,1,2,2,3,3,4,4,5,5,6,6],"right_children":[2,4,6,8,10,12,14,-1,-1,-1,-1,-1,-1,-1,-1],"split_conditions":[2E0,2.017E3,1E0,9E1,2E0,2.3E1,9E1,1.3522207E-3,1.0441455E-2,-1.5172149E-2,1.7199591E-3,1.2811151E-2,-2.4527526E-3,-2.5039125E-2,-1.03904195E-2],"split_indices":[0,2,15,6,15,12,6,0,0,0,0,0,0,0,0],"split_type":[0,0,0,0,0,0,0,0,0,0,0,0,0,0,0],"sum_hessian":[3.751E3,2.697E3,1.054E3,2.034E3,6.63E2,2.21E2,8.33E2,7.46E2,1.288E3,1.27E2,5.36E2,4.5E1,1.76E2,3.17E2,5.16E2],"tree_param":{"num_deleted":"0","num_feature":"19","num_nodes":"15","size_leaf_vector":"1"}},{"base_weights":[4.969394E-3,8.800614E-2,-2.591765E-1,1.3535905E-1,-6.338779E-2,-1.6968913E-1,-4.250294E-1,9.897566E-3,2.1813E-3,-1.7589843E-2,5.238338E-5,-2.2379209E-3,-1.39782205E-2,-2.7984226E-2,-1.3257764E-2],"categories":[],"categories_nodes":[],"categories_segments":[],"categories_sizes":[],"default_left":[0,0,0,0,0,0,0,0,0,0,0,0,0,0,0],"id":4,"left_children":[1,3,5,7,9,11,13,-1,-1,-1,-1,-1,-1,-1,-1],"loss_changes":[8.20772E1,2.0418562E1,1.3211235E1,1.2445286E1,1.2618749E1,7.9902096E0,6.589817E0,0E0,0E0,0E0,0E0,0E0,0E0,0E0,0E0],"parents":[2147483647,0,0,1,1,2,2,3,3,4,4,5,5,6,6],"right_children":[2,4,6,8,10,12,14,-1,-1,-1,-1,-1,-1,-1,-1],"split_conditions":[3E0,2.017E3,4.7E1,1E0,2E0,3.1E1,2E0,9.897566E-3,2.1813E-3,-1.7589843E-2,5.238338E-5,-2.2379209E-3,-1.39782205E-2,-2.7984226E-2,-1.3257764E-2],"split_indices":[0,2,3,8,15,12,10,0,0,0,0,0,0,0,0],"split_type":[0,0,0,0,0,0,0,0,0,0,0,0,0,0,0],"sum_hessian":[3.74E3,2.846E3,8.94E2,2.168E3,6.78E2,5.82E2,3.12E2,1.288E3,8.8E2,1.23E2,5.55E2,2.73E2,3.09E2,1.68E2,1.44E2],"tree_param":{"num_deleted":"0","num_feature":"19","num_nodes":"15","size_leaf_vector":"1"}},{"base_weights":[-1.4938762E-3,8.216252E-2,-2.0981485E-1,1.8171631E-1,4.3075975E-2,-1.19559325E-1,-3.340263E-1,1.2430145E-2,2.5057916E-3,-7.347128E-3,4.2543514E-3,-2.5404504E-2,-4.12707E-3,-1.0476983E-2,-2.2636535E-2],"categories":[],"categories_nodes":[],"categories_segments":[],"categories_sizes":[],"default_left":[0,0,0,0,0,0,0,0,0,0,0,0,0,0,0],"id":5,"left_children":[1,3,5,7,9,11,13,-1,-1,-1,-1,-1,-1,-1,-1],"loss_changes":[6.526536E1,1.0389494E1,1.198922E1,6.615679E0,1.5339627E1,8.918425E0,6.5696106E0,0E0,0E0,0E0,0E0,0E0,0E0,0E0,0E0],"parents":[2147483647,0,0,1,1,2,2,3,3,4,4,5,5,6,6],"right_children":[2,4,6,8,10,12,14,-1,-1,-1,-1,-1,-1,-1,-1],"split_conditions":[2E0,3.6E1,4.3E1,3E0,2E0,1E0,3E0,1.2430145E-2,2.5057916E-3,-7.347128E-3,4.2543514E-3,-2.5404504E-2,-4.12707E-3,-1.0476983E-2,-2.2636535E-2],"split_indices":[0,3,3,7,15,11,7,0,0,0,0,0,0,0,0],"split_type":[0,0,0,0,0,0,0,0,0,0,0,0,0,0,0],"sum_hessian":[3.743E3,2.671E3,1.072E3,7.52E2,1.919E3,6.22E2,4.5E2,4.98E2,2.54E2,3.47E2,1.572E3,5.3E1,5.69E2,2.21E2,2.29E2],"tree_param":{"num_deleted":"0","num_feature":"19","num_nodes":"15","size_leaf_vector":"1"}},{"base_weights":[-3.928438E-4,6.835717E-2,-1.7281725E-1,-6.3890114E-2,1.0556455E-1,-1.0979529E-1,-2.9353857E-1,-1.1537812E-2,4.3221074E-3,1.4206243E-3,7.6862383E-3,2.7555E-3,-8.1809405E-3,-1.0098661E-2,-3.7252605E-2],"categories":[],"categories_nodes":[],"categories_segments":[],"categories_sizes":[],"default_left":[0,0,0,0,0,0,0,0,0,0,0,0,0,0,0],"id":6,"left_children":[1,3,5,7,9,11,13,-1,-1,-1,-1,-1,-1,-1,-1],"loss_changes":[4.4204197E1,1.3124995E1,8.055174E0,1.4719967E1,7.7279243E0,6.222064E0,1.4898367E1,0E0,0E0,0E0,0E0,0E0,0E0,0E0,0E0],"parents":[2147483647,0,0,1,1,2,2,3,3,4,4,5,5,6,6],"right_children":[2,4,6,8,10,12,14,-1,-1,-1,-1,-1,-1,-1,-1],"split_conditions":[2E0,2E0,3.5E1,1E0,1E0,1E0,2E0,-1.1537812E-2,4.3221074E-3,1.4206243E-3,7.6862383E-3,2.7555E-3,-8.1809405E-3,-1.0098661E-2,-3.7252605E-2],"split_indices":[0,15,12,4,14,15,18,0,0,0,0,0,0,0,0],"split_type":[0,0,0,0,0,0,0,0,0,0,0,0,0,0,0],"sum_hessian":[3.727E3,2.665E3,1.062E3,5.85E2,2.08E3,6.99E2,3.63E2,2.77E2,3.08E2,8E2,1.28E3,1.72E2,5.27E2,3.03E2,6E1],"tree_param":{"num_deleted":"0","num_feature":"19","num_nodes":"15","size_leaf_vector":"1"}},{"base_weights":[-1.9558135E-3,8.212579E-2,-2.1149687E-1,1.1792058E-1,-3.176791E-2,-1.150347E-1,-3.7543616E-1,1.0885066E-2,3.0154188E-3,-1.2236541E-2,7.696791E-4,5.9387493E-3,-8.594673E-3,-2.0349048E-2,6.7861713E-3],"categories":[],"categories_nodes":[],"categories_segments":[],"categories_sizes":[],"default_left":[0,0,0,0,0,0,0,0,0,0,0,0,0,0,0],"id":7,"left_children":[1,3,5,7,9,11,13,-1,-1,-1,-1,-1,-1,-1,-1],"loss_changes":[6.650977E1,1.0986647E1,1.7051682E1,1.1771479E1,6.4819202E0,9.087014E0,6.5050087E0,0E0,0E0,0E0,0E0,0E0,0E0,0E0,0E0],"parents":[2147483647,0,0,1,1,2,2,3,3,4,4,5,5,6,6],"right_children":[2,4,6,8,10,12,14,-1,-1,-1,-1,-1,-1,-1,-1],"split_conditions":[2E0,2.017E3,4.6E1,2.9E1,2E0,2.014E3,2.018E3,1.0885066E-2,3.0154188E-3,-1.2236541E-2,7.696791E-4,5.9387493E-3,-8.594673E-3,-2.0349048E-2,6.7861713E-3],"split_indices":[0,2,3,12,15,2,2,0,0,0,0,0,0,0,0],"split_type":[0,0,0,0,0,0,0,0,0,0,0,0,0,0,0],"sum_hessian":[3.773E3,2.693E3,1.08E3,2.049E3,6.44E2,6.81E2,3.99E2,7.49E2,1.3E3,1.16E2,5.28E2,1.33E2,5.48E2,3.76E2,2.3E1],"tree_param":{"num_deleted":"0","num_feature":"19","num_nodes":"15","size_leaf_vector":"1"}},{"base_weights":[-9.928084E-3,8.76424E-2,-9.0962805E-2,-1.7442903E-2,1.4826225E-1,-3.0016705E-2,-1.4966612E-1,2.2375917E-3,-1.3454529E-2,1.00851385E-2,-2.0032662E-3,-1.4671828E-2,-1.7923162E-4,-2.981067E-3,-1.1600775E-2],"categories":[],"categories_nodes":[],"categories_segments":[],"categories_sizes":[],"default_left":[0,0,0,0,0,0,0,0,0,0,0,0,0,0,0],"id":8,"left_children":[1,3,5,7,9,11,13,-1,-1,-1,-1,-1,-1,-1,-1],"loss_changes":[2.9728872E1,1.0870242E1,7.344181E0,9.79402E0,1.0897678E1,7.0243454E0,7.7423935E0,0E0,0E0,0E0,0E0,0E0,0E0,0E0,0E0],"parents":[2147483647,0,0,1,1,2,2,3,3,4,4,5,5,6,6],"right_children":[2,4,6,8,10,12,14,-1,-1,-1,-1,-1,-1,-1,-1],"split_conditions":[1E0,9E1,4.2E1,2E0,2.017E3,1E0,3E0,2.2375917E-3,-1.3454529E-2,1.00851385E-2,-2.0032662E-3,-1.4671828E-2,-1.7923162E-4,-2.981067E-3,-1.1600775E-2],"split_indices":[8,6,3,18,2,11,7,0,0,0,0,0,0,0,0],"split_type":[0,0,0,0,0,0,0,0,0,0,0,0,0,0,0],"sum_hessian":[3.758E3,1.705E3,2.053E3,6.24E2,1.081E3,1.008E3,1.045E3,5.01E2,1.23E2,8.42E2,2.39E2,9.1E1,9.17E2,5E2,5.45E2],"tree_param":{"num_deleted":"0","num_feature":"19","num_nodes":"15","size_leaf_vector":"1"}},{"base_weights":[8.571445E-4,6.50092E-2,-2.0110923E-1,8.112617E-2,-1.784785E-1,-4.5688584E-2,-3.2381645E-1,2.2089377E-3,8.826751E-3,-4.4767894E-3,-4.795824E-2,-7.327041E-2,-1.2003779E-3,-1.3674646E-2,-3.3948768E-2],"categories":[],"categories_nodes":[],"categories_segments":[],"categories_sizes":[],"default_left":[0,0,0,0,0,0,0,0,0,0,0,0,0,0,0],"id":9,"left_children":[1,3,5,7,9,11,13,-1,-1,-1,-1,-1,-1,-1,-1],"loss_changes":[4.858721E1,1.1182993E1,1.7225605E1,9.404245E0,1.2204354E1,1.227721E1,8.840103E0,0E0,0E0,0E0,0E0,0E0,0E0,0E0,0E0],"parents":[2147483647,0,0,1,1,2,2,3,3,4,4,5,5,6,6],"right_children":[2,4,6,8,10,12,14,-1,-1,-1,-1,-1,-1,-1,-1],"split_conditions":[3E0,4E0,3.1E1,5E0,2E0,2.012E3,4E0,2.2089377E-3,8.826751E-3,-4.4767894E-3,-4.795824E-2,-7.327041E-2,-1.2003779E-3,-1.3674646E-2,-3.3948768E-2],"split_indices":[0,14,12,5,9,2,0,0,0,0,0,0,0,0,0],"split_type":[0,0,0,0,0,0,0,0,0,0,0,0,0,0,0],"sum_hessian":[3.748E3,2.845E3,9.03E2,2.669E3,1.76E2,3.99E2,5.04E2,1.925E3,7.44E2,1.59E2,1.7E1,5E0,3.94E2,4.43E2,6.1E1],"tree_param":{"num_deleted":"0","num_feature":"19","num_nodes":"15","size_leaf_vector":"1"}},{"base_weights":[-6.6120317E-3,5.850181E-2,-1.7417617E-1,1.0120536E-1,-7.190781E-2,-9.56102E-2,-3.0473804E-1,1.02369245E-2,1.7349335E-3,-9.0886885E-3,3.093754E-3,-1.9749193E-2,-2.1686011E-3,-5.1029213E-3,-2.003403E-2],"categories":[],"categories_nodes":[],"categories_segments":[],"categories_sizes":[],"default_left":[0,0,0,0,0,0,0,0,0,0,0,0,0,0,0],"id":10,"left_children":[1,3,5,7,9,11,13,-1,-1,-1,-1,-1,-1,-1,-1],"loss_changes":[4.031448E1,1.4826263E1,1.0577347E1,1.3798618E1,9.667954E0,1.010113E1,7.503994E0,0E0,0E0,0E0,0E0,0E0,0E0,0E0,0E0],"parents":[2147483647,0,0,1,1,2,2,3,3,4,4,5,5,6,6],"right_children":[2,4,6,8,10,12,14,-1,-1,-1,-1,-1,-1,-1,-1],"split_conditions":[2E0,2.017E3,4.6E1,3E1,3E0,1E0,2E0,1.02369245E-2,1.7349335E-3,-9.0886885E-3,3.093754E-3,-1.9749193E-2,-2.1686011E-3,-5.1029213E-3,-2.003403E-2],"split_indices":[0,2,3,12,5,16,7,0,0,0,0,0,0,0,0],"split_type":[0,0,0,0,0,0,0,0,0,0,0,0,0,0,0],"sum_hessian":[3.693E3,2.66E3,1.033E3,2.004E3,6.56E2,6.46E2,3.87E2,7.83E2,1.221E3,3.6E2,2.96E2,9.5E1,5.51E2,1.25E2,2.62E2],"tree_param":{"num_deleted":"0","num_feature":"19","num_nodes":"15","size_leaf_vector":"1"}},{"base_weights":[6.09608E-3,7.9439804E-2,-1.7837606E-1,9.4865866E-2,-1.6276376E-1,-1.144389E-1,-3.5100865E-1,3.070615E-3,9.170082E-3,1.8759754E-4,-3.0796433E-2,-6.2367623E-3,3.8787697E-2,-2.6109004E-2,-6.6297897E-3],"categories":[],"categories_nodes":[],"categories_segments":[],"categories_sizes":[],"default_left":[0,0,0,0,0,0,0,0,0,0,0,0,0,0,0],"id":11,"left_children":[1,3,5,7,9,11,13,-1,-1,-1,-1,-1,-1,-1,-1],"loss_changes":[5.0412952E1,9.976273E0,1.1659725E1,7.4140644E0,1.2075763E1,7.2002068E0,1.0623169E1,0E0,0E0,0E0,0E0,0E0,0E0,0E0,0E0],"parents":[2147483647,0,0,1,1,2,2,3,3,4,4,5,5,6,6],"right_children":[2,4,6,8,10,12,14,-1,-1,-1,-1,-1,-1,-1,-1],"split_conditions":[2E0,4E0,5.3E1,5E0,3E0,3E0,2E0,3.070615E-3,9.170082E-3,1.8759754E-4,-3.0796433E-2,-6.2367623E-3,3.8787697E-2,-2.6109004E-2,-6.6297897E-3],"split_indices":[0,14,3,5,16,8,10,0,0,0,0,0,0,0,0],"split_type":[0,0,0,0,0,0,0,0,0,0,0,0,0,0,0],"sum_hessian":[3.724E3,2.665E3,1.059E3,2.506E3,1.59E2,7.74E2,2.85E2,1.82E3,6.86E2,1.17E2,4.2E1,7.66E2,8E0,1.59E2,1.26E2],"tree_param":{"num_deleted":"0","num_feature":"19","num_nodes":"15","size_leaf_vector":"1"}},{"base_weights":[-1.9786821E-3,6.554803E-2,-1.6783194E-1,8.786174E-2,-6.1116483E-2,-6.7361094E-2,-3.306603E-1,-3.933744E-3,5.310233E-3,2.8837372E-3,-1.3257547E-2,-1.6650164E-2,-1.1753882E-3,-1.5078654E-2,-3.3377796E-2],"categories":[],"categories_nodes":[],"categories_segments":[],"categories_sizes":[],"default_left":[0,0,0,0,0,0,0,0,0,0,0,0,0,0,0],"id":12,"left_children":[1,3,5,7,9,11,13,-1,-1,-1,-1,-1,-1,-1,-1],"loss_changes":[4.191963E1,7.523473E0,1.769507E1,6.9182396E0,9.686055E0,7.808849E0,3.8458138E0,0E0,0E0,0E0,0E0,0E0,0E0,0E0,0E0],"parents":[2147483647,0,0,1,1,2,2,3,3,4,4,5,5,6,6],"right_children":[2,4,6,8,10,12,14,-1,-1,-1,-1,-1,-1,-1,-1],"split_conditions":[2E0,6.2E1,4.5E1,2E0,4E1,1E0,4E0,-3.933744E-3,5.310233E-3,2.8837372E-3,-1.3257547E-2,-1.6650164E-2,-1.1753882E-3,-1.5078654E-2,-3.3377796E-2],"split_indices":[0,3,3,5,12,16,0,0,0,0,0,0,0,0,0],"split_type":[0,0,0,0,0,0,0,0,0,0,0,0,0,0,0],"sum_hessian":[3.741E3,2.659E3,1.082E3,2.261E3,3.98E2,6.7E2,4.12E2,2.24E2,2.037E3,2.52E2,1.46E2,9.4E1,5.76E2,3.81E2,3.1E1],"tree_param":{"num_deleted":"0","num_feature":"19","num_nodes":"15","size_leaf_vector":"1"}},{"base_weights":[-4.5850864E-3,5.915287E-2,-1.6893183E-1,9.203109E-2,-4.4908933E-2,-4.6218354E-2,-2.7614054E-1,1.9782541E-4,7.1284655E-3,-2.3791965E-4,-1.4201707E-2,-2.7912915E-2,-1.6068487E-3,-1.0777671E-2,-3.374443E-2],"categories":[],"categories_nodes":[],"categories_segments":[],"categories_sizes":[],"default_left":[0,0,0,0,0,0,0,0,0,0,0,0,0,0,0],"id":13,"left_children":[1,3,5,7,9,11,13,-1,-1,-1,-1,-1,-1,-1,-1],"loss_changes":[3.913459E1,9.214453E0,1.3722052E1,9.106455E0,6.2104993E0,3.5006516E0,1.3311081E1,0E0,0E0,0E0,0E0,0E0,0E0,0E0,0E0],"parents":[2147483647,0,0,1,1,2,2,3,3,4,4,5,5,6,6],"right_children":[2,4,6,8,10,12,14,-1,-1,-1,-1,-1,-1,-1,-1],"split_conditions":[2E0,2.017E3,2E0,9E1,3E0,2.012E3,5.2E1,1.9782541E-4,7.1284655E-3,-2.3791965E-4,-1.4201707E-2,-2.7912915E-2,-1.6068487E-3,-1.0777671E-2,-3.374443E-2],"split_indices":[0,2,1,6,17,2,12,0,0,0,0,0,0,0,0],"split_type":[0,0,0,0,0,0,0,0,0,0,0,0,0,0,0],"sum_hessian":[3.734E3,2.691E3,1.043E3,2.045E3,6.46E2,4.87E2,5.56E2,7.46E2,1.299E3,5.54E2,9.2E1,1.2E1,4.75E2,4.84E2,7.2E1],"tree_param":{"num_deleted":"0","num_feature":"19","num_nodes":"15","size_leaf_vector":"1"}},{"base_weights":[-5.965531E-3,4.8938926E-2,-1.7811802E-1,8.4081925E-2,-6.611445E-2,-9.2673495E-2,-2.8814197E-1,-5.7239854E-4,6.87292E-3,-1.1668681E-2,-1.0576559E-3,-2.2172085E-3,-1.6251454E-2,-1.1848403E-2,-3.1105995E-2],"categories":[],"categories_nodes":[],"categories_segments":[],"categories_sizes":[],"default_left":[0,0,0,0,0,0,0,0,0,0,0,0,0,0,0],"id":14,"left_children":[1,3,5,7,9,11,13,-1,-1,-1,-1,-1,-1,-1,-1],"loss_changes":[3.5453484E1,1.1504765E1,8.499952E0,1.11124E1,5.0035133E0,5.7351356E0,6.620594E0,0E0,0E0,0E0,0E0,0E0,0E0,0E0,0E0],"parents":[2147483647,0,0,1,1,2,2,3,3,4,4,5,5,6,6],"right_children":[2,4,6,8,10,12,14,-1,-1,-1,-1,-1,-1,-1,-1],"split_conditions":[3E0,2.017E3,3E0,9E1,1E0,3E0,4E0,-5.7239854E-4,6.87292E-3,-1.1668681E-2,-1.0576559E-3,-2.2172085E-3,-1.6251454E-2,-1.1848403E-2,-3.1105995E-2],"split_indices":[0,2,7,6,13,16,0,0,0,0,0,0,0,0,0],"split_type":[0,0,0,0,0,0,0,0,0,0,0,0,0,0,0],"sum_hessian":[3.749E3,2.843E3,9.06E2,2.178E3,6.65E2,5.11E2,3.95E2,7.81E2,1.397E3,1.4E2,5.25E2,4.24E2,8.7E1,3.44E2,5.1E1],"tree_param":{"num_deleted":"0","num_feature":"19","num_nodes":"15","size_leaf_vector":"1"}},{"base_weights":[8.741807E-3,6.204367E-2,-1.6437805E-1,1.5568177E-1,2.8774958E-2,-8.6704835E-2,-3.8743487E-1,1.0455174E-2,-2.5196534E-3,4.8372387E-3,-6.7825156E-4,-3.9681443E-3,-4.3320443E-2,-7.517784E-2,-1.8033616E-2],"categories":[],"categories_nodes":[],"categories_segments":[],"categories_sizes":[],"default_left":[0,0,0,0,0,0,0,0,0,0,0,0,0,0,0],"id":15,"left_children":[1,3,5,7,9,11,13,-1,-1,-1,-1,-1,-1,-1,-1],"loss_changes":[3.449378E1,8.898816E0,1.5212881E1,8.25618E0,6.073557E0,3.6750956E0,6.2382545E0,0E0,0E0,0E0,0E0,0E0,0E0,0E0,0E0],"parents":[2147483647,0,0,1,1,2,2,3,3,4,4,5,5,6,6],"right_children":[2,4,6,8,10,12,14,-1,-1,-1,-1,-1,-1,-1,-1],"split_conditions":[3E0,3.4E1,5.3E1,2E0,2.015E3,6.1E1,2.012E3,1.0455174E-2,-2.5196534E-3,4.8372387E-3,-6.7825156E-4,-3.9681443E-3,-4.3320443E-2,-7.517784E-2,-1.8033616E-2],"split_indices":[0,3,3,18,2,12,2,0,0,0,0,0,0,0,0],"split_type":[0,0,0,0,0,0,0,0,0,0,0,0,0,0,0],"sum_hessian":[3.736E3,2.857E3,8.79E2,7.48E2,2.109E3,6.53E2,2.26E2,5.94E2,1.54E2,8.09E2,1.3E3,6.48E2,5E0,4E0,2.22E2],"tree_param":{"num_deleted":"0","num_feature":"19","num_nodes":"15","size_leaf_vector":"1"}},{"base_weights":[-7.694133E-4,3.9095603E-2,-1.3457103E-1,1.2978978E-1,6.0226433E-3,-4.645322E-2,-3.6610442E-1,-5.554199E-4,9.121261E-3,4.6609505E-3,-2.3336406E-3,3.4325735E-3,-7.275903E-3,-2.6553614E-2,-5.1957252E-3],"categories":[],"categories_nodes":[],"categories_segments":[],"categories_sizes":[],"default_left":[0,0,0,0,0,0,0,0,0,0,0,0,0,0,0],"id":16,"left_children":[1,3,5,7,9,11,13,-1,-1,-1,-1,-1,-1,-1,-1],"loss_changes":[1.9821085E1,8.586859E0,1.7386082E1,5.6754465E0,9.648945E0,7.0683403E0,1.0109245E1,0E0,0E0,0E0,0E0,0E0,0E0,0E0,0E0],"parents":[2147483647,0,0,1,1,2,2,3,3,4,4,5,5,6,6],"right_children":[2,4,6,8,10,12,14,-1,-1,-1,-1,-1,-1,-1,-1],"split_conditions":[3E0,3.5E1,5.2E1,9E1,2.015E3,3.1E1,3E0,-5.554199E-4,9.121261E-3,4.6609505E-3,-2.3336406E-3,3.4325735E-3,-7.275903E-3,-2.6553614E-2,-5.1957252E-3],"split_indices":[0,3,3,6,2,12,8,0,0,0,0,0,0,0,0],"split_type":[0,0,0,0,0,0,0,0,0,0,0,0,0,0,0],"sum_hessian":[3.714E3,2.862E3,8.52E2,7.64E2,2.098E3,6.18E2,2.34E2,2.08E2,5.56E2,7.9E2,1.308E3,2.86E2,3.32E2,1.43E2,9.1E1],"tree_param":{"num_deleted":"0","num_feature":"19","num_nodes":"15","size_leaf_vector":"1"}},{"base_weights":[-2.086627E-3,4.1087925E-2,-1.3790727E-1,7.260401E-2,-5.799005E-2,-4.0018705E-1,-8.384721E-2,8.687268E-3,8.0654316E-4,-2.8625552E-2,-1.86917E-3,-1.1563586E-2,-4.2592686E-2,-7.146283E-2,-3.5451052E-3],"categories":[],"categories_nodes":[],"categories_segments":[],"categories_sizes":[],"default_left":[0,0,0,0,0,0,0,0,0,0,0,0,0,0,0],"id":17,"left_children":[1,3,5,7,9,11,13,-1,-1,-1,-1,-1,-1,-1,-1],"loss_changes":[2.16614E1,8.756716E0,1.2599806E1,1.21461315E1,7.1565256E0,1.1399591E1,1.2786856E1,0E0,0E0,0E0,0E0,0E0,0E0,0E0,0E0],"parents":[2147483647,0,0,1,1,2,2,3,3,4,4,5,5,6,6],"right_children":[2,4,6,8,10,12,14,-1,-1,-1,-1,-1,-1,-1,-1],"split_conditions":[3E0,2.017E3,2E0,2.9E1,2E1,2E0,2.012E3,8.687268E-3,8.0654316E-4,-2.8625552E-2,-1.86917E-3,-1.1563586E-2,-4.2592686E-2,-7.146283E-2,-3.5451052E-3],"split_indices":[0,2,8,12,12,16,2,0,0,0,0,0,0,0,0],"split_type":[0,0,0,0,0,0,0,0,0,0,0,0,0,0,0],"sum_hessian":[3.692E3,2.802E3,8.9E2,2.126E3,6.76E2,1.51E2,7.39E2,7.61E2,1.365E3,2.5E1,6.51E2,1.11E2,4E1,6E0,7.33E2],"tree_param":{"num_deleted":"0","num_feature":"19","num_nodes":"15","size_leaf_vector":"1"}},{"base_weights":[1.0368962E-2,6.307163E-2,-1.2243175E-1,9.039009E-2,-4.271636E-2,-6.423044E-2,-2.8251523E-1,6.266354E-3,-1.0006314E-3,-2.4388693E-2,-1.6814127E-4,-1.2702216E-2,-1.5493988E-3,-2.1205425E-2,-4.214512E-3],"categories":[],"categories_nodes":[],"categories_segments":[],"categories_sizes":[],"default_left":[0,0,0,0,0,0,0,0,0,0,0,0,0,0,0],"id":18,"left_children":[1,3,5,7,9,11,13,-1,-1,-1,-1,-1,-1,-1,-1],"loss_changes":[2.6358774E1,7.795211E0,9.951117E0,8.268354E0,9.701441E0,4.9516954E0,7.96344E0,0E0,0E0,0E0,0E0,0E0,0E0,0E0,0E0],"parents":[2147483647,0,0,1,1,2,2,3,3,4,4,5,5,6,6],"right_children":[2,4,6,8,10,12,14,-1,-1,-1,-1,-1,-1,-1,-1],"split_conditions":[2E0,2E0,5.3E1,2.017E3,2E0,1E0,2E0,6.266354E-3,-1.0006314E-3,-2.4388693E-2,-1.6814127E-4,-1.2702216E-2,-1.5493988E-3,-2.1205425E-2,-4.214512E-3],"split_indices":[0,18,3,2,5,16,10,0,0,0,0,0,0,0,0],"split_type":[0,0,0,0,0,0,0,0,0,0,0,0,0,0,0],"sum_hessian":[3.764E3,2.695E3,1.069E3,2.142E3,5.53E2,7.85E2,2.84E2,1.627E3,5.15E2,4.4E1,5.09E2,1.16E2,6.69E2,1.65E2,1.19E2],"tree_param":{"num_deleted":"0","num_feature":"19","num_nodes":"15","size_leaf_vector":"1"}},{"base_weights":[9.702919E-3,5.636853E-2,-1.0631234E-1,7.8123674E-2,-7.930932E-2,-5.906057E-2,-2.1598816E-1,5.6660664E-3,-1.4964988E-3,-1.1318432E-2,5.261346E-3,-3.3598647E-3,4.7715615E-2,-2.444542E-2,-5.4360298E-3],"categories":[],"categories_nodes":[],"categories_segments":[],"categories_sizes":[],"default_left":[0,0,0,0,0,0,0,0,0,0,0,0,0,0,0],"id":19,"left_children":[1,3,5,7,9,11,13,-1,-1,-1,-1,-1,-1,-1,-1],"loss_changes":[2.008082E1,7.8134184E0,5.501293E0,8.674771E0,9.956246E0,6.2070518E0,9.315004E0,0E0,0E0,0E0,0E0,0E0,0E0,0E0,0E0],"parents":[2147483647,0,0,1,1,2,2,3,3,4,4,5,5,6,6],"right_children":[2,4,6,8,10,12,14,-1,-1,-1,-1,-1,-1,-1,-1],"split_conditions":[2E0,1E0,3E0,2.017E3,3E0,6.6E1,2E0,5.6660664E-3,-1.4964988E-3,-1.1318432E-2,5.261346E-3,-3.3598647E-3,4.7715615E-2,-2.444542E-2,-5.4360298E-3],"split_indices":[0,9,1,2,11,12,8,0,0,0,0,0,0,0,0],"split_type":[0,0,0,0,0,0,0,0,0,0,0,0,0,0,0],"sum_hessian":[3.707E3,2.644E3,1.063E3,2.279E3,3.65E2,7.44E2,3.19E2,1.719E3,5.6E2,2.03E2,1.62E2,7.39E2,5E0,8.9E1,2.3E2],"tree_param":{"num_deleted":"0","num_feature":"19","num_nodes":"15","size_leaf_vector":"1"}},{"base_weights":[-7.0510553E-3,6.520339E-2,-6.779404E-2,1.0884767E-1,-1.30006E-1,-5.208843E-2,-3.5207802E-1,7.4873194E-3,-1.4165059E-3,-7.861816E-2,-6.0156183E-3,4.8203142E-3,-3.9960975E-3,2.6260588E-2,-2.097069E-2],"categories":[],"categories_nodes":[],"categories_segments":[],"categories_sizes":[],"default_left":[0,0,0,0,0,0,0,0,0,0,0,0,0,0,0],"id":20,"left_children":[1,3,5,7,9,11,13,-1,-1,-1,-1,-1,-1,-1,-1],"loss_changes":[1.6383986E1,1.4540364E1,9.036386E0,7.8251343E0,4.1731114E0,7.955715E0,6.4820166E0,0E0,0E0,0E0,0E0,0E0,0E0,0E0,0E0],"parents":[2147483647,0,0,1,1,2,2,3,3,4,4,5,5,6,6],"right_children":[2,4,6,8,10,12,14,-1,-1,-1,-1,-1,-1,-1,-1],"split_conditions":[1E0,2E0,4E0,2.017E3,1.8E1,2.4E1,1.9E1,7.4873194E-3,-1.4165059E-3,-7.861816E-2,-6.0156183E-3,4.8203142E-3,-3.9960975E-3,2.6260588E-2,-2.097069E-2],"split_indices":[8,18,0,2,12,3,3,0,0,0,0,0,0,0,0],"split_type":[0,0,0,0,0,0,0,0,0,0,0,0,0,0,0],"sum_hessian":[3.731E3,1.704E3,2.027E3,1.393E3,3.11E2,1.922E3,1.05E2,1.073E3,3.2E2,1E0,3.1E2,3.03E2,1.619E3,7E0,9.8E1],"tree_param":{"num_deleted":"0","num_feature":"19","num_nodes":"15","size_leaf_vector":"1"}},{"base_weights":[9.434143E-3,4.863779E-2,-9.082911E-2,6.56026E-2,-1.770915E-1,-4.125797E-2,-2.3545858E-1,4.8799003E-3,-1.55833E-3,-2.361237E-2,-5.4101733E-4,-2.7386353E-3,2.2329679E-2,2.046934E-2,-1.3926928E-2],"categories":[],"categories_nodes":[],"categories_segments":[],"categories_sizes":[],"default_left":[0,0,0,0,0,0,0,0,0,0,0,0,0,0,0],"id":21,"left_children":[1,3,5,7,9,11,13,-1,-1,-1,-1,-1,-1,-1,-1],"loss_changes":[1.45283E1,1.0186476E1,7.4393415E0,7.6567726E0,9.123009E0,5.1341786E0,7.47571E0,0E0,0E0,0E0,0E0,0E0,0E0,0E0,0E0],"parents":[2147483647,0,0,1,1,2,2,3,3,4,4,5,5,6,6],"right_children":[2,4,6,8,10,12,14,-1,-1,-1,-1,-1,-1,-1,-1],"split_conditions":[2E0,4E0,5.3E1,2.017E3,9E1,5.2E1,2.1E1,4.8799003E-3,-1.55833E-3,-2.361237E-2,-5.4101733E-4,-2.7386353E-3,2.2329679E-2,2.046934E-2,-1.3926928E-2],"split_indices":[0,14,3,2,6,3,12,0,0,0,0,0,0,0,0],"split_type":[0,0,0,0,0,0,0,0,0,0,0,0,0,0,0],"sum_hessian":[3.694E3,2.656E3,1.038E3,2.471E3,1.85E2,7.74E2,2.64E2,1.857E3,6.14E2,6.6E1,1.19E2,7.54E2,2E1,1.6E1,2.48E2],"tree_param":{"num_deleted":"0","num_feature":"19","num_nodes":"15","size_leaf_vector":"1"}},{"base_weights":[6.0411677E-4,3.7029676E-2,-1.1567816E-1,-3.042473E-2,7.713841E-2,-3.713173E-1,-6.543039E-2,-1.3364121E-2,-5.073533E-4,6.8361657E-3,-2.894747E-4,3.520401E-3,-3.132774E-2,-4.4656318E-2,-2.8723842E-3],"categories":[],"categories_nodes":[],"categories_segments":[],"categories_sizes":[],"default_left":[0,0,0,0,0,0,0,0,0,0,0,0,0,0,0],"id":22,"left_children":[1,3,5,7,9,11,13,-1,-1,-1,-1,-1,-1,-1,-1],"loss_changes":[1.5697355E1,7.6372995E0,1.1330945E1,5.0547643E0,8.746806E0,1.639212E1,4.8380556E0,0E0,0E0,0E0,0E0,0E0,0E0,0E0,0E0],"parents":[2147483647,0,0,1,1,2,2,3,3,4,4,5,5,6,6],"right_children":[2,4,6,8,10,12,14,-1,-1,-1,-1,-1,-1,-1,-1],"split_conditions":[3E0,1E0,2E0,1E0,2.016E3,2E0,2.012E3,-1.3364121E-2,-5.073533E-4,6.8361657E-3,-2.894747E-4,3.520401E-3,-3.132774E-2,-4.4656318E-2,-2.8723842E-3],"split_indices":[0,14,8,5,2,1,2,0,0,0,0,0,0,0,0],"split_type":[0,0,0,0,0,0,0,0,0,0,0,0,0,0,0],"sum_hessian":[3.704E3,2.821E3,8.83E2,1.052E3,1.769E3,1.44E2,7.39E2,8.2E1,9.7E2,1.029E3,7.4E2,5.3E1,9.1E1,6E0,7.33E2],"tree_param":{"num_deleted":"0","num_feature":"19","num_nodes":"15","size_leaf_vector":"1"}},{"base_weights":[-7.406529E-3,3.5127047E-2,-1.1505269E-1,1.362989E-1,6.369399E-3,2.353974E-2,-1.5266801E-1,9.38537E-3,-9.881614E-3,-2.8066244E-3,3.086686E-3,6.412746E-3,-6.220578E-3,-1.4235782E-2,-3.7623812E-3],"categories":[],"categories_nodes":[],"categories_segments":[],"categories_sizes":[],"default_left":[0,0,0,0,0,0,0,0,0,0,0,0,0,0,0],"id":23,"left_children":[1,3,5,7,9,11,13,-1,-1,-1,-1,-1,-1,-1,-1],"loss_changes":[1.7201174E1,7.8343196E0,5.550438E0,1.0268571E1,7.263331E0,3.548303E0,8.535376E0,0E0,0E0,0E0,0E0,0E0,0E0,0E0,0E0],"parents":[2147483647,0,0,1,1,2,2,3,3,4,4,5,5,6,6],"right_children":[2,4,6,8,10,12,14,-1,-1,-1,-1,-1,-1,-1,-1],"split_conditions":[2E0,2.5E1,1E0,1E0,3E0,3.1E1,9E1,9.38537E-3,-9.881614E-3,-2.8066244E-3,3.086686E-3,6.412746E-3,-6.220578E-3,-1.4235782E-2,-3.7623812E-3],"split_indices":[0,12,15,17,11,12,6,0,0,0,0,0,0,0,0],"split_type":[0,0,0,0,0,0,0,0,0,0,0,0,0,0,0],"sum_hessian":[3.755E3,2.692E3,1.063E3,5.95E2,2.097E3,2.27E2,8.36E2,5.16E2,7.9E1,9.85E2,1.112E3,1.33E2,9.4E1,3.08E2,5.28E2],"tree_param":{"num_deleted":"0","num_feature":"19","num_nodes":"15","size_leaf_vector":"1"}},{"base_weights":[-1.219242E-2,4.6120297E-2,-6.1478976E-2,-1.0629126E-2,1.121734E-1,-6.577929E-2,5.584714E-1,2.0801143E-3,-6.6453475E-3,8.325847E-3,-3.1074563E-3,2.1505326E-3,-4.413527E-3,3.5141014E-2,-3.2951597E-2],"categories":[],"categories_nodes":[],"categories_segments":[],"categories_sizes":[],"default_left":[0,0,0,0,0,0,0,0,0,0,0,0,0,0,0],"id":24,"left_children":[1,3,5,7,9,11,13,-1,-1,-1,-1,-1,-1,-1,-1],"loss_changes":[1.0697112E1,6.392343E0,5.4140177E0,5.868559E0,7.475312E0,4.9072256E0,2.9236145E0,0E0,0E0,0E0,0E0,0E0,0E0,0E0,0E0],"parents":[2147483647,0,0,1,1,2,2,3,3,4,4,5,5,6,6],"right_children":[2,4,6,8,10,12,14,-1,-1,-1,-1,-1,-1,-1,-1],"split_conditions":[1E0,3E0,6.8E1,1E0,2.017E3,2.4E1,7.1E1,2.0801143E-3,-6.6453475E-3,8.325847E-3,-3.1074563E-3,2.1505326E-3,-4.413527E-3,3.5141014E-2,-3.2951597E-2],"split_indices":[8,10,12,0,2,3,12,0,0,0,0,0,0,0,0],"split_type":[0,0,0,0,0,0,0,0,0,0,0,0,0,0,0],"sum_hessian":[3.72E3,1.704E3,2.016E3,9.17E2,7.87E2,2.003E3,1.3E1,6.43E2,2.74E2,6E2,1.87E2,3.43E2,1.66E3,1.2E1,1E0],"tree_param":{"num_deleted":"0","num_feature":"19","num_nodes":"15","size_leaf_vector":"1"}},{"base_weights":[-3.594314E-3,2.8744312E-2,-8.704242E-2,4.184912E-2,-1.7471534E-1,-1.9753529E-2,-2.1308585E-1,3.1160302E-3,-3.484194E-3,-2.3690264E-3,-2.5519615E-2,6.103143E-4,-1.2911093E-2,-6.7334296E-3,-2.8989388E-2],"categories":[],"categories_nodes":[],"categories_segments":[],"categories_sizes":[],"default_left":[0,0,0,0,0,0,0,0,0,0,0,0,0,0,0],"id":25,"left_children":[1,3,5,7,9,11,13,-1,-1,-1,-1,-1,-1,-1,-1],"loss_changes":[1.0135734E1,7.224987E0,8.892696E0,5.8129206E0,6.9857283E0,5.2238135E0,1.0417772E1,0E0,0E0,0E0,0E0,0E0,0E0,0E0,0E0],"parents":[2147483647,0,0,1,1,2,2,3,3,4,4,5,5,6,6],"right_children":[2,4,6,8,10,12,14,-1,-1,-1,-1,-1,-1,-1,-1],"split_conditions":[2E0,4E0,3.5E1,6.2E1,3E0,4E0,2E0,3.1160302E-3,-3.484194E-3,-2.3690264E-3,-2.5519615E-2,6.103143E-4,-1.2911093E-2,-6.7334296E-3,-2.8989388E-2],"split_indices":[0,14,12,3,16,0,18,0,0,0,0,0,0,0,0],"split_type":[0,0,0,0,0,0,0,0,0,0,0,0,0,0,0],"sum_hessian":[3.754E3,2.706E3,1.048E3,2.543E3,1.63E2,6.84E2,3.64E2,2.149E3,3.94E2,1.19E2,4.4E1,6.04E2,8E1,3.01E2,6.3E1],"tree_param":{"num_deleted":"0","num_feature":"19","num_nodes":"15","size_leaf_vector":"1"}},{"base_weights":[-1.1232901E-2,2.1172067E-2,-9.4135195E-2,4.388734E-2,-1.04734845E-1,-2.5687704E-2,-2.1444023E-1,-1.3098557E-3,4.167159E-3,-3.0888296E-3,-3.419996E-2,-1.3789493E-2,8.020528E-4,-1.40088275E-2,-6.7756866E-4],"categories":[],"categories_nodes":[],"categories_segments":[],"categories_sizes":[],"default_left":[0,0,0,0,0,0,0,0,0,0,0,0,0,0,0],"id":26,"left_children":[1,3,5,7,9,11,13,-1,-1,-1,-1,-1,-1,-1,-1],"loss_changes":[9.941844E0,7.6150837E0,8.558453E0,6.2378016E0,1.0085608E1,6.934229E0,4.9747505E0,0E0,0E0,0E0,0E0,0E0,0E0,0E0,0E0],"parents":[2147483647,0,0,1,1,2,2,3,3,4,4,5,5,6,6],"right_children":[2,4,6,8,10,12,14,-1,-1,-1,-1,-1,-1,-1,-1],"split_conditions":[2E0,6.2E1,4.6E1,9E1,1E0,1E0,3E0,-1.3098557E-3,4.167159E-3,-3.0888296E-3,-3.419996E-2,-1.3789493E-2,8.020528E-4,-1.40088275E-2,-6.7756866E-4],"split_indices":[0,3,3,6,9,16,8,0,0,0,0,0,0,0,0],"split_type":[0,0,0,0,0,0,0,0,0,0,0,0,0,0,0],"sum_hessian":[3.699E3,2.66E3,1.039E3,2.254E3,4.06E2,6.63E2,3.76E2,8.12E2,1.442E3,3.79E2,2.7E1,9.4E1,5.69E2,2.83E2,9.3E1],"tree_param":{"num_deleted":"0","num_feature":"19","num_nodes":"15","size_leaf_vector":"1"}},{"base_weights":[-5.1647015E-3,1.977931E-2,-8.447875E-2,3.189932E-2,-1.5301947E-1,-3.0712247E-1,-4.1652914E-2,2.4888758E-3,-3.181214E-3,-1.1834636E-3,-2.560698E-2,-9.584196E-3,-3.4087647E-2,-1.7074605E-2,-7.2845974E-4],"categories":[],"categories_nodes":[],"categories_segments":[],"categories_sizes":[],"default_left":[0,0,0,0,0,0,0,0,0,0,0,0,0,0,0],"id":27,"left_children":[1,3,5,7,9,11,13,-1,-1,-1,-1,-1,-1,-1,-1],"loss_changes":[7.491933E0,6.0386257E0,8.625831E0,4.6022444E0,8.767355E0,6.1833515E0,6.174924E0,0E0,0E0,0E0,0E0,0E0,0E0,0E0,0E0],"parents":[2147483647,0,0,1,1,2,2,3,3,4,4,5,5,6,6],"right_children":[2,4,6,8,10,12,14,-1,-1,-1,-1,-1,-1,-1,-1],"split_conditions":[3E0,4E0,2E0,6.2E1,3E0,2E0,1E0,2.4888758E-3,-3.181214E-3,-1.1834636E-3,-2.560698E-2,-9.584196E-3,-3.4087647E-2,-1.7074605E-2,-7.2845974E-4],"split_indices":[0,14,8,3,16,16,11,0,0,0,0,0,0,0,0],"split_type":[0,0,0,0,0,0,0,0,0,0,0,0,0,0,0],"sum_hessian":[3.785E3,2.88E3,9.05E2,2.692E3,1.88E2,1.45E2,7.6E2,2.268E3,4.24E2,1.39E2,4.9E1,1.12E2,3.3E1,6.2E1,6.98E2],"tree_param":{"num_deleted":"0","num_feature":"19","num_nodes":"15","size_leaf_vector":"1"}},{"base_weights":[-1.8133614E-2,4.445272E-2,-6.9979385E-2,-5.8670163E-2,1.0347542E-1,-1.0854804E-1,3.5456676E-2,-1.8720008E-2,-1.3271666E-3,7.4349465E-3,-4.0544597E-3,-1.7827641E-3,-9.529615E-3,3.5673399E-3,-1.1413741E-2],"categories":[],"categories_nodes":[],"categories_segments":[],"categories_sizes":[],"default_left":[0,0,0,0,0,0,0,0,0,0,0,0,0,0,0],"id":28,"left_children":[1,3,5,7,9,11,13,-1,-1,-1,-1,-1,-1,-1,-1],"loss_changes":[1.2145288E1,1.0328928E1,8.328031E0,6.2586865E0,9.018104E0,8.957872E0,5.212767E0,0E0,0E0,0E0,0E0,0E0,0E0,0E0,0E0],"parents":[2147483647,0,0,1,1,2,2,3,3,4,4,5,5,6,6],"right_children":[2,4,6,8,10,12,14,-1,-1,-1,-1,-1,-1,-1,-1],"split_conditions":[1E0,1E0,5E0,1E0,2E0,4.2E1,3E0,-1.8720008E-2,-1.3271666E-3,7.4349465E-3,-4.0544597E-3,-1.7827641E-3,-9.529615E-3,3.5673399E-3,-1.1413741E-2],"split_indices":[8,14,5,5,18,3,17,0,0,0,0,0,0,0,0],"split_type":[0,0,0,0,0,0,0,0,0,0,0,0,0,0,0],"sum_hessian":[3.741E3,1.695E3,2.046E3,6.17E2,1.078E3,1.498E3,5.48E2,5.6E1,5.61E2,8.66E2,2.12E2,7.94E2,7.04E2,4.83E2,6.5E1],"tree_param":{"num_deleted":"0","num_feature":"19","num_nodes":"15","size_leaf_vector":"1"}},{"base_weights":[4.7926847E-3,1.262575E-2,-2.6040503E-1,3.5395272E-2,-7.259766E-2,-4.9152248E-2,-5.094563E-1,4.1920342E-3,-2.244501E-4,-1.0693963E-2,9.604573E-4,-1.1855195E-2,2.1457309E-2,-3.8647104E-2,-1.0139299E-2],"categories":[],"categories_nodes":[],"categories_segments":[],"categories_sizes":[],"default_left":[0,0,0,0,0,0,0,0,0,0,0,0,0,0,0],"id":29,"left_children":[1,3,5,7,9,11,13,-1,-1,-1,-1,-1,-1,-1,-1],"loss_changes":[7.747504E0,7.0310473E0,5.604525E0,5.5245657E0,9.913656E0,5.405674E0,3.802619E0,0E0,0E0,0E0,0E0,0E0,0E0,0E0,0E0],"parents":[2147483647,0,0,1,1,2,2,3,3,4,4,5,5,6,6],"right_children":[2,4,6,8,10,12,14,-1,-1,-1,-1,-1,-1,-1,-1],"split_conditions":[4E0,2E0,3E0,4.3E1,9E1,2E0,9E1,4.1920342E-3,-2.244501E-4,-1.0693963E-2,9.604573E-4,-1.1855195E-2,2.1457309E-2,-3.8647104E-2,-1.0139299E-2],"split_indices":[0,18,7,3,6,7,6,0,0,0,0,0,0,0,0],"split_type":[0,0,0,0,0,0,0,0,0,0,0,0,0,0,0],"sum_hessian":[3.727E3,3.621E3,1.06E2,2.858E3,7.63E2,5.8E1,4.8E1,1.29E3,1.568E3,3E2,4.63E2,4.2E1,1.6E1,2.5E1,2.3E1],"tree_param":{"num_deleted":"0","num_feature":"19","num_nodes":"15","size_leaf_vector":"1"}},{"base_weights":[-6.1515876E-4,3.8429867E-2,-1.0264027E-1,5.6397773E-2,-7.659098E-2,2.5535317E-3,-1.6039139E-1,-3.8709719E-4,4.655457E-3,-1.0248856E-2,4.1691633E-3,1.0812618E-2,-2.894023E-3,-5.758387E-3,-1.6157558E-2],"categories":[],"categories_nodes":[],"categories_segments":[],"categories_sizes":[],"default_left":[0,0,0,0,0,0,0,0,0,0,0,0,0,0,0],"id":30,"left_children":[1,3,5,7,9,11,13,-1,-1,-1,-1,-1,-1,-1,-1],"loss_changes":[1.5025999E1,5.6422334E0,6.3427715E0,5.5577097E0,7.595789E0,4.80386E0,4.9238243E0,0E0,0E0,0E0,0E0,0E0,0E0,0E0,0E0],"parents":[2147483647,0,0,1,1,2,2,3,3,4,4,5,5,6,6],"right_children":[2,4,6,8,10,12,14,-1,-1,-1,-1,-1,-1,-1,-1],"split_conditions":[2E0,1E0,2.9E1,1E0,3E0,2.014E3,4.8E1,-3.8709719E-4,4.655457E-3,-1.0248856E-2,4.1691633E-3,1.0812618E-2,-2.894023E-3,-5.758387E-3,-1.6157558E-2],"split_indices":[0,9,3,14,11,2,12,0,0,0,0,0,0,0,0],"split_type":[0,0,0,0,0,0,0,0,0,0,0,0,0,0,0],"sum_hessian":[3.77E3,2.727E3,1.043E3,2.359E3,3.68E2,3.7E2,6.73E2,8.59E2,1.5E3,2.04E2,1.64E2,8.1E1,2.89E2,5.28E2,1.45E2],"tree_param":{"num_deleted":"0","num_feature":"19","num_nodes":"15","size_leaf_vector":"1"}},{"base_weights":[-2.4769548E-4,5.4009717E-2,-4.5868307E-2,-3.130808E-2,1.04253314E-1,2.08855E-2,-1.295355E-1,-5.004811E-3,7.0984075E-3,7.988451E-3,2.921772E-4,3.6305477E-4,1.9768754E-2,-5.3916774E-3,-2.7190825E-2],"categories":[],"categories_nodes":[],"categories_segments":[],"categories_sizes":[],"default_left":[0,0,0,0,0,0,0,0,0,0,0,0,0,0,0],"id":31,"left_children":[1,3,5,7,9,11,13,-1,-1,-1,-1,-1,-1,-1,-1],"loss_changes":[9.331718E0,7.3849163E0,1.1440996E1,7.630675E0,5.9212675E0,5.8136344E0,8.113908E0,0E0,0E0,0E0,0E0,0E0,0E0,0E0,0E0],"parents":[2147483647,0,0,1,1,2,2,3,3,4,4,5,5,6,6],"right_children":[2,4,6,8,10,12,14,-1,-1,-1,-1,-1,-1,-1,-1],"split_conditions":[1E0,9E1,3E0,4E0,3E0,6.8E1,4E0,-5.004811E-3,7.0984075E-3,7.988451E-3,2.921772E-4,3.6305477E-4,1.9768754E-2,-5.3916774E-3,-2.7190825E-2],"split_indices":[8,6,7,5,5,3,0,0,0,0,0,0,0,0,0],"split_type":[0,0,0,0,0,0,0,0,0,0,0,0,0,0,0],"sum_hessian":[3.768E3,1.721E3,2.047E3,6.38E2,1.083E3,1.139E3,9.08E2,4.57E2,1.81E2,6.92E2,3.91E2,1.1E3,3.9E1,8.64E2,4.4E1],"tree_param":{"num_deleted":"0","num_feature":"19","num_nodes":"15","size_leaf_vector":"1"}},{"base_weights":[1.5112309E-2,4.987018E-2,-7.266808E-2,-1.948561E-1,6.0665723E-2,-2.9442353E-2,-2.4482045E-1,-1.5895708E-2,1.5024883E-2,1.6677823E-3,6.7477324E-3,1.8046311E-3,-5.8581703E-3,-8.733231E-3,-3.4075256E-2],"categories":[],"categories_nodes":[],"categories_segments":[],"categories_sizes":[],"default_left":[0,0,0,0,0,0,0,0,0,0,0,0,0,0,0],"id":32,"left_children":[1,3,5,7,9,11,13,-1,-1,-1,-1,-1,-1,-1,-1],"loss_changes":[1.1368822E1,7.063193E0,7.8583646E0,6.983703E0,5.183234E0,4.8677106E0,6.3757925E0,0E0,0E0,0E0,0E0,0E0,0E0,0E0,0E0],"parents":[2147483647,0,0,1,1,2,2,3,3,4,4,5,5,6,6],"right_children":[2,4,6,8,10,12,14,-1,-1,-1,-1,-1,-1,-1,-1],"split_conditions":[2E0,1E0,4.5E1,2.017E3,5E0,3E0,2E0,-1.5895708E-2,1.5024883E-2,1.6677823E-3,6.7477324E-3,1.8046311E-3,-5.8581703E-3,-8.733231E-3,-3.4075256E-2],"split_indices":[0,11,12,2,5,5,18,0,0,0,0,0,0,0,0],"split_type":[0,0,0,0,0,0,0,0,0,0,0,0,0,0,0],"sum_hessian":[3.724E3,2.668E3,1.056E3,1.12E2,2.556E3,8.45E2,2.11E2,9E1,2.2E1,1.87E3,6.86E2,4.84E2,3.61E2,1.83E2,2.8E1],"tree_param":{"num_deleted":"0","num_feature":"19","num_nodes":"15","size_leaf_vector":"1"}},{"base_weights":[3.940949E-3,2.9668825E-2,-7.7870056E-2,4.3029714E-2,-1.7227085E-1,-1.0022163E0,-7.051242E-2,-8.378769E-4,4.0950887E-3,-1.9998375E-2,-2.8965787E-3,4.127128E-2,-7.2219715E-2,-6.798611E-4,-7.343142E-3],"categories":[],"categories_nodes":[],"categories_segments":[],"categories_sizes":[],"default_left":[0,0,0,0,0,0,0,0,0,0,0,0,0,0,0],"id":33,"left_children":[1,3,5,7,9,11,13,-1,-1,-1,-1,-1,-1,-1,-1],"loss_changes":[7.882769E0,7.69428E0,6.0230284E0,6.213568E0,4.5849657E0,6.84924E0,3.8654966E0,0E0,0E0,0E0,0E0,0E0,0E0,0E0,0E0],"parents":[2147483647,0,0,1,1,2,2,3,3,4,4,5,5,6,6],"right_children":[2,4,6,8,10,12,14,-1,-1,-1,-1,-1,-1,-1,-1],"split_conditions":[3E0,4E0,2.012E3,1E0,9E1,2E1,3E0,-8.378769E-4,4.0950887E-3,-1.9998375E-2,-2.8965787E-3,4.127128E-2,-7.2219715E-2,-6.798611E-4,-7.343142E-3],"split_indices":[0,14,2,14,6,12,7,0,0,0,0,0,0,0,0],"split_type":[0,0,0,0,0,0,0,0,0,0,0,0,0,0,0],"sum_hessian":[3.743E3,2.848E3,8.95E2,2.672E3,1.76E2,6E0,8.89E2,1.053E3,1.619E3,5.8E1,1.18E2,1E0,5E0,5.1E2,3.79E2],"tree_param":{"num_deleted":"0","num_feature":"19","num_nodes":"15","size_leaf_vector":"1"}},{"base_weights":[1.7374996E-2,7.823359E-2,-1.3245588E-2,1.0596115E-1,-1.3981543E-1,1.5899982E-2,-1.54808E-1,1.362364E-2,3.6000342E-3,-1.6121855E-2,5.9102307E-4,1.2688395E-3,-1.9927049E-2,2.2175994E-4,-1.7051142E-2],"categories":[],"categories_nodes":[],"categories_segments":[],"categories_sizes":[],"default_left":[0,0,0,0,0,0,0,0,0,0,0,0,0,0,0],"id":34,"left_children":[1,3,5,7,9,11,13,-1,-1,-1,-1,-1,-1,-1,-1],"loss_changes":[6.9370794E0,7.5480905E0,1.022236E1,6.234606E0,3.9083831E0,8.0812845E0,1.2544918E1,0E0,0E0,0E0,0E0,0E0,0E0,0E0,0E0],"parents":[2147483647,0,0,1,1,2,2,3,3,4,4,5,5,6,6],"right_children":[2,4,6,8,10,12,14,-1,-1,-1,-1,-1,-1,-1,-1],"split_conditions":[2.8E1,2E0,2E0,2.014E3,3E0,4E0,3.6E1,1.362364E-2,3.6000342E-3,-1.6121855E-2,5.9102307E-4,1.2688395E-3,-1.9927049E-2,2.2175994E-4,-1.7051142E-2],"split_indices":[12,17,18,2,1,0,12,0,0,0,0,0,0,0,0],"split_type":[0,0,0,0,0,0,0,0,0,0,0,0,0,0,0],"sum_hessian":[3.721E3,1.245E3,2.476E3,1.105E3,1.4E2,2.054E3,4.22E2,1.86E2,9.19E2,6.3E1,7.7E1,2.009E3,4.5E1,2.28E2,1.94E2],"tree_param":{"num_deleted":"0","num_feature":"19","num_nodes":"15","size_leaf_vector":"1"}},{"base_weights":[6.243887E-3,-4.5964103E-2,3.888522E-2,-8.891172E-2,6.0438387E-2,3.159257E-1,2.9136406E-2,-4.151629E-3,-1.0437905E-1,2.3472076E-2,1.3844467E-3,2.1778995E-2,2.8277352E-4,3.293324E-3,-1.5526199E-3],"categories":[],"categories_nodes":[],"categories_segments":[],"categories_sizes":[],"default_left":[0,0,0,0,0,0,0,0,0,0,0,0,0,0,0],"id":35,"left_children":[1,3,5,7,9,11,13,-1,-1,-1,-1,-1,-1,-1,-1],"loss_changes":[6.445134E0,6.654335E0,6.2755938E0,1.2011905E1,5.599351E0,2.9304223E0,4.9739976E0,0E0,0E0,0E0,0E0,0E0,0E0,0E0,0E0],"parents":[2147483647,0,0,1,1,2,2,3,3,4,4,5,5,6,6],"right_children":[2,4,6,8,10,12,14,-1,-1,-1,-1,-1,-1,-1,-1],"split_conditions":[9E1,5E0,1.9E1,4E0,2.3E1,2.017E3,3E0,-4.151629E-3,-1.0437905E-1,2.3472076E-2,1.3844467E-3,2.1778995E-2,2.8277352E-4,3.293324E-3,-1.5526199E-3],"split_indices":[6,5,12,5,3,2,5,0,0,0,0,0,0,0,0],"split_type":[0,0,0,0,0,0,0,0,0,0,0,0,0,0,0],"sum_hessian":[3.78E3,1.454E3,2.326E3,1.036E3,4.18E2,7.8E1,2.248E3,1.034E3,2E0,3E1,3.88E2,5.6E1,2.2E1,1.396E3,8.52E2],"tree_param":{"num_deleted":"0","num_feature":"19","num_nodes":"15","size_leaf_vector":"1"}},{"base_weights":[5.175626E-3,-2.4711475E-2,5.2644655E-2,5.259512E-4,-1.6391201E-1,-1.416335E-1,7.7058345E-2,3.291351E-3,-2.9658915E-3,-6.1671314E-4,-1.5814047E-2,-3.4112667E-3,-3.0283762E-2,1.7974271E-3,8.736058E-3],"categories":[],"categories_nodes":[],"categories_segments":[],"categories_sizes":[],"default_left":[0,0,0,0,0,0,0,0,0,0,0,0,0,0,0],"id":36,"left_children":[1,3,5,7,9,11,13,-1,-1,-1,-1,-1,-1,-1,-1],"loss_changes":[5.317213E0,8.080132E0,6.8788447E0,7.6164217E0,8.148895E0,5.4771194E0,5.1608944E0,0E0,0E0,0E0,0E0,0E0,0E0,0E0,0E0],"parents":[2147483647,0,0,1,1,2,2,3,3,4,4,5,5,6,6],"right_children":[2,4,6,8,10,12,14,-1,-1,-1,-1,-1,-1,-1,-1],"split_conditions":[3E0,6E1,2E0,1E0,2.016E3,2E0,3E0,3.291351E-3,-2.9658915E-3,-6.1671314E-4,-1.5814047E-2,-3.4112667E-3,-3.0283762E-2,1.7974271E-3,8.736058E-3],"split_indices":[10,3,5,0,2,18,14,0,0,0,0,0,0,0,0],"split_type":[0,0,0,0,0,0,0,0,0,0,0,0,0,0,0],"sum_hessian":[3.746E3,2.299E3,1.447E3,1.947E3,3.52E2,1.61E2,1.286E3,9.31E2,1.016E3,1.77E2,1.75E2,1.4E2,2.1E1,9.06E2,3.8E2],"tree_param":{"num_deleted":"0","num_feature":"19","num_nodes":"15","size_leaf_vector":"1"}},{"base_weights":[-3.7915113E-3,-1.9905859E-1,6.527431E-3,-6.1844265E-1,-1.3351467E-1,1.8537192E-2,-1.5572952E-1,-4.713684E-2,1.750666E-2,-1.7091494E-2,1.1517011E-3,-1.9756241E-3,3.0446078E-3,-4.1583326E-2,-2.303636E-3],"categories":[],"categories_nodes":[],"categories_segments":[],"categories_sizes":[],"default_left":[0,0,0,0,0,0,0,0,0,0,0,0,0,0,0],"id":37,"left_children":[1,3,5,7,9,11,13,-1,-1,-1,-1,-1,-1,-1,-1],"loss_changes":[7.5069876E0,5.0576982E0,6.8992195E0,8.18267E0,5.3235435E0,8.106254E0,1.804723E1,0E0,0E0,0E0,0E0,0E0,0E0,0E0,0E0],"parents":[2147483647,0,0,1,1,2,2,3,3,4,4,5,5,6,6],"right_children":[2,4,6,8,10,12,14,-1,-1,-1,-1,-1,-1,-1,-1],"split_conditions":[1E0,2E0,4E0,2.017E3,2.8E1,1E0,2E0,-4.713684E-2,1.750666E-2,-1.7091494E-2,1.1517011E-3,-1.9756241E-3,3.0446078E-3,-4.1583326E-2,-2.303636E-3],"split_indices":[11,5,14,2,12,14,5,0,0,0,0,0,0,0,0],"split_type":[0,0,0,0,0,0,0,0,0,0,0,0,0,0,0],"sum_hessian":[3.724E3,1.86E2,3.538E3,2.4E1,1.62E2,3.295E3,2.43E2,1.8E1,6E0,6.9E1,9.3E1,1.39E3,1.905E3,3.3E1,2.1E2],"tree_param":{"num_deleted":"0","num_feature":"19","num_nodes":"15","size_leaf_vector":"1"}},{"base_weights":[-1.1792815E-2,3.823546E-2,-4.612682E-2,6.724388E-2,-1.3244405E-1,-9.783727E-2,1.2290671E-2,4.408167E-3,-8.698828E-3,-8.906495E-3,2.3201946E-2,-3.081865E-3,-1.150193E-2,-1.5235925E-2,2.6985456E-3],"categories":[],"categories_nodes":[],"categories_segments":[],"categories_sizes":[],"default_left":[0,0,0,0,0,0,0,0,0,0,0,0,0,0,0],"id":38,"left_children":[1,3,5,7,9,11,13,-1,-1,-1,-1,-1,-1,-1,-1],"loss_changes":[6.4103947E0,7.529692E0,6.686221E0,6.5703545E0,6.105091E0,5.6042137E0,1.3757986E1,0E0,0E0,0E0,0E0,0E0,0E0,0E0,0E0],"parents":[2147483647,0,0,1,1,2,2,3,3,4,4,5,5,6,6],"right_children":[2,4,6,8,10,12,14,-1,-1,-1,-1,-1,-1,-1,-1],"split_conditions":[1E0,6.2E1,3E0,4E0,2E0,2E0,2E0,4.408167E-3,-8.698828E-3,-8.906495E-3,2.3201946E-2,-3.081865E-3,-1.150193E-2,-1.5235925E-2,2.6985456E-3],"split_indices":[0,3,10,14,8,18,5,0,0,0,0,0,0,0,0],"split_type":[0,0,0,0,0,0,0,0,0,0,0,0,0,0,0],"sum_hessian":[3.73E3,1.518E3,2.212E3,1.298E3,2.2E2,1.173E3,1.039E3,1.195E3,1.03E2,2.05E2,1.5E1,9.22E2,2.51E2,1.2E2,9.19E2],"tree_param":{"num_deleted":"0","num_feature":"19","num_nodes":"15","size_leaf_vector":"1"}},{"base_weights":[5.777789E-3,2.4573785E-1,-1.1899855E-3,3.7759098E-1,-1.3938917E-1,-4.91627E-3,4.0838912E-1,6.3340478E-3,2.5151098E-2,2.2214008E-3,-6.0372252E-2,-1.2803103E-3,2.7104854E-3,7.920839E-3,3.5923332E-2],"categories":[],"categories_nodes":[],"categories_segments":[],"categories_sizes":[],"default_left":[0,0,0,0,0,0,0,0,0,0,0,0,0,0,0],"id":39,"left_children":[1,3,5,7,9,11,13,-1,-1,-1,-1,-1,-1,-1,-1],"loss_changes":[6.1030474E0,5.282994E0,5.416994E0,2.3596134E0,5.354474E0,4.3037786E0,2.366528E0,0E0,0E0,0E0,0E0,0E0,0E0,0E0,0E0],"parents":[2147483647,0,0,1,1,2,2,3,3,4,4,5,5,6,6],"right_children":[2,4,6,8,10,12,14,-1,-1,-1,-1,-1,-1,-1,-1],"split_conditions":[1.9E1,2.017E3,6.8E1,1E0,2E0,5E0,1E0,6.3340478E-3,2.5151098E-2,2.2214008E-3,-6.0372252E-2,-1.2803103E-3,2.7104854E-3,7.920839E-3,3.5923332E-2],"split_indices":[12,2,12,7,18,5,8,0,0,0,0,0,0,0,0],"split_type":[0,0,0,0,0,0,0,0,0,0,0,0,0,0,0],"sum_hessian":[3.649E3,1.02E2,3.547E3,7.6E1,2.6E1,3.516E3,3.1E1,2.6E1,5E1,2.3E1,3E0,2.605E3,9.11E2,1.8E1,1.3E1],"tree_param":{"num_deleted":"0","num_feature":"19","num_nodes":"15","size_leaf_vector":"1"}},{"base_weights":[-5.774516E-3,-1.8972784E-1,3.3573397E-3,-7.3130316E-1,-1.2340089E-1,4.8166458E-2,-3.1743698E-2,-6.1892428E-2,5.9963907E-3,3.2298874E-2,-8.1672715E-3,4.6393094E-3,-1.7469587E-3,-8.125031E-3,-5.813644E-5],"categories":[],"categories_nodes":[],"categories_segments":[],"categories_sizes":[],"default_left":[0,0,0,0,0,0,0,0,0,0,0,0,0,0,0],"id":40,"left_children":[1,3,5,7,9,11,13,-1,-1,-1,-1,-1,-1,-1,-1],"loss_changes":[6.2513037E0,6.231861E0,5.5788426E0,8.341006E0,4.9612474E0,5.7805405E0,7.9531727E0,0E0,0E0,0E0,0E0,0E0,0E0,0E0,0E0],"parents":[2147483647,0,0,1,1,2,2,3,3,4,4,5,5,6,6],"right_children":[2,4,6,8,10,12,14,-1,-1,-1,-1,-1,-1,-1,-1],"split_conditions":[1E0,2E0,4.3E1,2.016E3,2.1E1,3E0,4.9E1,-6.1892428E-2,5.9963907E-3,3.2298874E-2,-8.1672715E-3,4.6393094E-3,-1.7469587E-3,-8.125031E-3,-5.813644E-5],"split_indices":[11,5,3,2,12,5,3,0,0,0,0,0,0,0,0],"split_type":[0,0,0,0,0,0,0,0,0,0,0,0,0,0,0],"sum_hessian":[3.72E3,1.75E2,3.545E3,1.8E1,1.57E2,1.557E3,1.988E3,1.1E1,7E0,7E0,1.5E2,1.013E3,5.44E2,3.76E2,1.612E3],"tree_param":{"num_deleted":"0","num_feature":"19","num_nodes":"15","size_leaf_vector":"1"}},{"base_weights":[9.126036E-3,-2.1927528E-1,2.0805275E-2,3.7789088E-2,-2.5659803E-1,6.992751E-2,-1.5055227E-2,-2.789086E-2,-7.0096157E-3,4.089908E-3,-8.958267E-3,6.11984E-4,-5.806812E-3],"categories":[],"categories_nodes":[],"categories_segments":[],"categories_sizes":[],"default_left":[0,0,0,0,0,0,0,0,0,0,0,0,0],"id":41,"left_children":[1,3,5,-1,7,9,11,-1,-1,-1,-1,-1,-1],"loss_changes":[1.0034564E1,6.85363E0,6.3038716E0,0E0,6.1280603E0,4.479565E0,5.709786E0,0E0,0E0,0E0,0E0,0E0,0E0],"parents":[2147483647,0,0,1,1,2,2,4,4,5,5,6,6],"right_children":[2,4,6,-1,8,10,12,-1,-1,-1,-1,-1,-1],"split_conditions":[1E0,2.1E1,4.2E1,3.7789088E-2,2.6E1,4E0,2E0,-2.789086E-2,-7.0096157E-3,4.089908E-3,-8.958267E-3,6.11984E-4,-5.806812E-3],"split_indices":[11,12,3,0,12,0,0,0,0,0,0,0,0],"split_type":[0,0,0,0,0,0,0,0,0,0,0,0,0],"sum_hessian":[3.759E3,1.82E2,3.577E3,6E0,1.76E2,1.509E3,2.068E3,4.8E1,1.28E2,1.441E3,6.8E1,1.629E3,4.39E2],"tree_param":{"num_deleted":"0","num_feature":"19","num_nodes":"13","size_leaf_vector":"1"}},{"base_weights":[1.7798848E-2,7.083226E-2,-2.5898183E-2,1.0769036E-1,-5.1235113E-2,1.08567886E-1,-5.2523993E-2,8.3305575E-3,9.321851E-4,-6.2332686E-2,-1.3098569E-3,7.60474E-3,-2.098024E-2,8.920613E-3,-3.2672554E-3],"categories":[],"categories_nodes":[],"categories_segments":[],"categories_sizes":[],"default_left":[0,0,0,0,0,0,0,0,0,0,0,0,0,0,0],"id":42,"left_children":[1,3,5,7,9,11,13,-1,-1,-1,-1,-1,-1,-1,-1],"loss_changes":[8.634159E0,7.5776224E0,7.3201895E0,6.780877E0,1.1670309E1,7.834347E0,5.062885E0,0E0,0E0,0E0,0E0,0E0,0E0,0E0,0E0],"parents":[2147483647,0,0,1,1,2,2,3,3,4,4,5,5,6,6],"right_children":[2,4,6,8,10,12,14,-1,-1,-1,-1,-1,-1,-1,-1],"split_conditions":[1E0,2.017E3,2.4E1,3.6E1,1.8E1,4.5E1,1E0,8.3305575E-3,9.321851E-4,-6.2332686E-2,-1.3098569E-3,7.60474E-3,-2.098024E-2,8.920613E-3,-3.2672554E-3],"split_indices":[8,2,3,12,12,12,5,0,0,0,0,0,0,0,0],"split_type":[0,0,0,0,0,0,0,0,0,0,0,0,0,0,0],"sum_hessian":[3.724E3,1.682E3,2.042E3,1.292E3,3.9E2,3.37E2,1.705E3,7.77E2,5.15E2,7E0,3.83E2,3.12E2,2.5E1,8.9E1,1.616E3],"tree_param":{"num_deleted":"0","num_feature":"19","num_nodes":"15","size_leaf_vector":"1"}},{"base_weights":[8.7258285E-3,6.1431967E-2,-2.324388E-2,2.4014069E-1,4.1872445E-2,3.4633197E-2,-6.943737E-2,7.7909003E-3,2.3736333E-2,-8.828112E-3,3.5057277E-3,3.2309478E-3,-1.1735076E-2,-4.704367E-3,8.315832E-3],"categories":[],"categories_nodes":[],"categories_segments":[],"categories_sizes":[],"default_left":[0,0,0,0,0,0,0,0,0,0,0,0,0,0,0],"id":43,"left_children":[1,3,5,7,9,11,13,-1,-1,-1,-1,-1,-1,-1,-1],"loss_changes":[6.2527776E0,4.88708E0,6.178292E0,2.6557965E0,7.810064E0,8.301353E0,7.4832044E0,0E0,0E0,0E0,0E0,0E0,0E0,0E0,0E0],"parents":[2147483647,0,0,1,1,2,2,3,3,4,4,5,5,6,6],"right_children":[2,4,6,8,10,12,14,-1,-1,-1,-1,-1,-1,-1,-1],"split_conditions":[2.015E3,2.2E1,4.3E1,2E0,2.5E1,3E0,6.1E1,7.7909003E-3,2.3736333E-2,-8.828112E-3,3.5057277E-3,3.2309478E-3,-1.1735076E-2,-4.704367E-3,8.315832E-3],"split_indices":[2,12,3,8,12,16,12,0,0,0,0,0,0,0,0],"split_type":[0,0,0,0,0,0,0,0,0,0,0,0,0,0,0],"sum_hessian":[3.709E3,1.4E3,2.309E3,1.37E2,1.263E3,1.025E3,1.284E3,1.02E2,3.5E1,1.44E2,1.119E3,9.23E2,1.02E2,1.163E3,1.21E2],"tree_param":{"num_deleted":"0","num_feature":"19","num_nodes":"15","size_leaf_vector":"1"}},{"base_weights":[2.2369013E-3,3.210977E-2,-4.777734E-2,6.2208194E-2,-6.645373E-2,-1.2159365E-2,-2.632494E-1,5.105007E-3,-3.4944343E-4,4.0223877E-4,-1.1410332E-2,1.2676474E-3,-1.1183868E-2,-2.3807632E-2,-3.2231794E-3],"categories":[],"categories_nodes":[],"categories_segments":[],"categories_sizes":[],"default_left":[0,0,0,0,0,0,0,0,0,0,0,0,0,0,0],"id":44,"left_children":[1,3,5,7,9,11,13,-1,-1,-1,-1,-1,-1,-1,-1],"loss_changes":[5.4937315E0,6.8332605E0,1.0549482E1,4.8700695E0,6.496974E0,9.3763485E0,8.222123E0,0E0,0E0,0E0,0E0,0E0,0E0,0E0,0E0],"parents":[2147483647,0,0,1,1,2,2,3,3,4,4,5,5,6,6],"right_children":[2,4,6,8,10,12,14,-1,-1,-1,-1,-1,-1,-1,-1],"split_conditions":[3.6E1,2.017E3,2E0,3E0,2E0,6.2E1,3E0,5.105007E-3,-3.4944343E-4,4.0223877E-4,-1.1410332E-2,1.2676474E-3,-1.1183868E-2,-2.3807632E-2,-3.2231794E-3],"split_indices":[12,2,18,5,11,3,1,0,0,0,0,0,0,0,0],"split_type":[0,0,0,0,0,0,0,0,0,0,0,0,0,0,0],"sum_hessian":[3.675E3,2.301E3,1.374E3,1.763E3,5.38E2,1.18E3,1.94E2,1.118E3,6.45E2,3.69E2,1.69E2,1.003E3,1.77E2,9.3E1,1.01E2],"tree_param":{"num_deleted":"0","num_feature":"19","num_nodes":"15","size_leaf_vector":"1"}},{"base_weights":[6.27318E-3,3.2883212E-2,-7.924245E-2,9.582593E-2,-1.9869508E-2,-4.515821E-2,-2.4241516E-1,6.536469E-3,-5.2936543E-3,9.7233645E-4,-4.4100587E-3,-2.5964929E-2,-1.133857E-3,-3.840096E-3,-2.5854489E-2],"categories":[],"categories_nodes":[],"categories_segments":[],"categories_sizes":[],"default_left":[0,0,0,0,0,0,0,0,0,0,0,0,0,0,0],"id":45,"left_children":[1,3,5,7,9,11,13,-1,-1,-1,-1,-1,-1,-1,-1],"loss_changes":[8.447259E0,9.401957E0,4.8888373E0,9.102467E0,4.1416793E0,7.769429E0,6.87473E0,0E0,0E0,0E0,0E0,0E0,0E0,0E0,0E0],"parents":[2147483647,0,0,1,1,2,2,3,3,4,4,5,5,6,6],"right_children":[2,4,6,8,10,12,14,-1,-1,-1,-1,-1,-1,-1,-1],"split_conditions":[2.017E3,1E0,3E0,1E0,3.5E1,2E1,4.8E1,6.536469E-3,-5.2936543E-3,9.7233645E-4,-4.4100587E-3,-2.5964929E-2,-1.133857E-3,-3.840096E-3,-2.5854489E-2],"split_indices":[2,8,17,9,12,12,3,0,0,0,0,0,0,0,0],"split_type":[0,0,0,0,0,0,0,0,0,0,0,0,0,0,0],"sum_hessian":[3.71E3,2.83E3,8.8E2,1.29E3,1.54E3,7.29E2,1.51E2,1.1E3,1.9E2,9.78E2,5.62E2,3.2E1,6.97E2,9.5E1,5.6E1],"tree_param":{"num_deleted":"0","num_feature":"19","num_nodes":"15","size_leaf_vector":"1"}},{"base_weights":[3.1620439E-3,1.1854522E-2,-1.12241015E-1,-3.1066522E-2,4.2413034E-2,6.837523E-4,-3.3175415E-1,4.427584E-3,-3.0048662E-3,4.419523E-3,-8.518699E-4,-1.9449787E-2,7.827505E-3,-9.133956E-3,-4.5481175E-2],"categories":[],"categories_nodes":[],"categories_segments":[],"categories_sizes":[],"default_left":[0,0,0,0,0,0,0,0,0,0,0,0,0,0,0],"id":46,"left_children":[1,3,5,7,9,11,13,-1,-1,-1,-1,-1,-1,-1,-1],"loss_changes":[3.752066E0,4.5630736E0,6.4948063E0,5.0301914E0,5.555729E0,1.0629293E1,7.5008135E0,0E0,0E0,0E0,0E0,0E0,0E0,0E0,0E0],"parents":[2147483647,0,0,1,1,2,2,3,3,4,4,5,5,6,6],"right_children":[2,4,6,8,10,12,14,-1,-1,-1,-1,-1,-1,-1,-1],"split_conditions":[4E0,1E0,3E0,1E0,2.016E3,2E0,1E0,4.427584E-3,-3.0048662E-3,4.419523E-3,-8.518699E-4,-1.9449787E-2,7.827505E-3,-9.133956E-3,-4.5481175E-2],"split_indices":[14,14,5,15,2,5,9,0,0,0,0,0,0,0,0],"split_type":[0,0,0,0,0,0,0,0,0,0,0,0,0,0,0],"sum_hessian":[3.738E3,3.477E3,2.61E2,1.446E3,2.031E3,1.73E2,8.8E1,2.82E2,1.164E3,1.145E3,8.86E2,4.9E1,1.24E2,7.1E1,1.7E1],"tree_param":{"num_deleted":"0","num_feature":"19","num_nodes":"15","size_leaf_vector":"1"}},{"base_weights":[1.3181781E-3,3.5645846E-2,-5.6923814E-2,6.3863985E-2,-5.7113644E-2,-1.8562017E-2,-2.8527552E-1,-1.1045087E-2,3.979589E-3,1.3271174E-3,-1.1555842E-2,2.166202E-3,-4.067878E-3,1.1794411E-3,-2.4569083E-2],"categories":[],"categories_nodes":[],"categories_segments":[],"categories_sizes":[],"default_left":[0,0,0,0,0,0,0,0,0,0,0,0,0,0,0],"id":47,"left_children":[1,3,5,7,9,11,13,-1,-1,-1,-1,-1,-1,-1,-1],"loss_changes":[7.4994483E0,6.1809483E0,1.217984E1,8.12409E0,8.026716E0,4.635837E0,1.2743357E1,0E0,0E0,0E0,0E0,0E0,0E0,0E0,0E0],"parents":[2147483647,0,0,1,1,2,2,3,3,4,4,5,5,6,6],"right_children":[2,4,6,8,10,12,14,-1,-1,-1,-1,-1,-1,-1,-1],"split_conditions":[3.6E1,2.017E3,2E0,1E0,2E0,1E0,1E0,-1.1045087E-2,3.979589E-3,1.3271174E-3,-1.1555842E-2,2.166202E-3,-4.067878E-3,1.1794411E-3,-2.4569083E-2],"split_indices":[12,2,18,11,11,8,0,0,0,0,0,0,0,0,0],"split_type":[0,0,0,0,0,0,0,0,0,0,0,0,0,0,0],"sum_hessian":[3.749E3,2.359E3,1.39E3,1.809E3,5.5E2,1.191E3,1.99E2,9.4E1,1.715E3,3.72E2,1.78E2,6E2,5.91E2,8E1,1.19E2],"tree_param":{"num_deleted":"0","num_feature":"19","num_nodes":"15","size_leaf_vector":"1"}},{"base_weights":[8.4045005E-4,2.9981097E-2,-7.248722E-2,3.3156227E-3,1.0414681E-1,5.210741E-2,-1.0542162E-1,1.501007E-3,-6.7946017E-3,6.104603E-3,-5.654488E-3,1.1449202E-2,-7.539158E-4,-1.0738847E-2,-1.9098677E-3],"categories":[],"categories_nodes":[],"categories_segments":[],"categories_sizes":[],"default_left":[0,0,0,0,0,0,0,0,0,0,0,0,0,0,0],"id":48,"left_children":[1,3,5,7,9,11,13,-1,-1,-1,-1,-1,-1,-1,-1],"loss_changes":[8.0622425E0,5.339347E0,4.408494E0,7.390699E0,2.7972403E0,2.6772594E0,6.233076E0,0E0,0E0,0E0,0E0,0E0,0E0,0E0,0E0],"parents":[2147483647,0,0,1,1,2,2,3,3,4,4,5,5,6,6],"right_children":[2,4,6,8,10,12,14,-1,-1,-1,-1,-1,-1,-1,-1],"split_conditions":[2E0,5E0,1E0,3E0,3E0,9E1,9E1,1.501007E-3,-6.7946017E-3,6.104603E-3,-5.654488E-3,1.1449202E-2,-7.539158E-4,-1.0738847E-2,-1.9098677E-3],"split_indices":[0,5,15,5,17,6,6,0,0,0,0,0,0,0,0],"split_type":[0,0,0,0,0,0,0,0,0,0,0,0,0,0,0],"sum_hessian":[3.771E3,2.699E3,1.072E3,1.986E3,7.13E2,2.24E2,8.48E2,1.667E3,3.19E2,6.59E2,5.4E1,6.1E1,1.63E2,3.22E2,5.26E2],"tree_param":{"num_deleted":"0","num_feature":"19","num_nodes":"15","size_leaf_vector":"1"}},{"base_weights":[1.4427571E-2,3.433764E-2,-8.947934E-2,4.7512826E-2,-1.2583765E-1,-5.211546E-2,-5.50803E-1,1.3919449E-3,8.029803E-3,-2.4291293E-3,-2.084451E-2,2.8032372E-2,-3.7968424E-3,-9.146379E-3,-4.8126064E-2],"categories":[],"categories_nodes":[],"categories_segments":[],"categories_sizes":[],"default_left":[0,0,0,0,0,0,0,0,0,0,0,0,0,0,0],"id":49,"left_children":[1,3,5,7,9,11,13,-1,-1,-1,-1,-1,-1,-1,-1],"loss_changes":[7.744499E0,6.634554E0,1.0347875E1,6.4540977E0,5.3537292E0,8.187621E0,6.639675E0,0E0,0E0,0E0,0E0,0E0,0E0,0E0,0E0],"parents":[2147483647,0,0,1,1,2,2,3,3,4,4,5,5,6,6],"right_children":[2,4,6,8,10,12,14,-1,-1,-1,-1,-1,-1,-1,-1],"split_conditions":[6.1E1,4E0,1E0,5.6E1,1E0,1E0,3E0,1.3919449E-3,8.029803E-3,-2.4291293E-3,-2.084451E-2,2.8032372E-2,-3.7968424E-3,-9.146379E-3,-4.8126064E-2],"split_indices":[3,14,9,3,9,5,7,0,0,0,0,0,0,0,0],"split_type":[0,0,0,0,0,0,0,0,0,0,0,0,0,0,0],"sum_hessian":[3.741E3,3.14E3,6.01E2,2.902E3,2.38E2,5.57E2,4.4E1,2.473E3,4.29E2,1.89E2,4.9E1,2E1,5.37E2,2.4E1,2E1],"tree_param":{"num_deleted":"0","num_feature":"19","num_nodes":"15","size_leaf_vector":"1"}},{"base_weights":[9.08593E-3,5.567743E-3,3.7042496E-1,3.0819342E-2,-3.780161E-2,5.0377244E-1,-6.321606E-2,2.2279196E-3,-4.4208816E-3,2.1859929E-4,-1.4000413E-2,-6.840275E-3,2.968715E-2],"categories":[],"categories_nodes":[],"categories_segments":[],"categories_sizes":[],"default_left":[0,0,0,0,0,0,0,0,0,0,0,0,0],"id":50,"left_children":[1,3,5,7,9,11,-1,-1,-1,-1,-1,-1,-1],"loss_changes":[4.7460866E0,4.053203E0,8.484543E0,3.8356965E0,1.3913679E1,2.0407543E0,0E0,0E0,0E0,0E0,0E0,0E0,0E0],"parents":[2147483647,0,0,1,1,2,2,3,3,4,4,5,5],"right_children":[2,4,6,8,10,12,-1,-1,-1,-1,-1,-1,-1],"split_conditions":[6.8E1,3.6E1,1E0,3E0,2E0,5.5E1,-6.321606E-2,2.2279196E-3,-4.4208816E-3,2.1859929E-4,-1.4000413E-2,-6.840275E-3,2.968715E-2],"split_indices":[12,12,9,17,18,3,0,0,0,0,0,0,0],"split_type":[0,0,0,0,0,0,0,0,0,0,0,0,0],"sum_hessian":[3.734E3,3.699E3,3.5E1,2.338E3,1.361E3,3.3E1,2E0,2.097E3,2.41E2,1.16E3,2.01E2,4E0,2.9E1],"tree_param":{"num_deleted":"0","num_feature":"19","num_nodes":"13","size_leaf_vector":"1"}},{"base_weights":[-8.498557E-3,3.2488327E-3,-1.6947865E-1,1.82334E-2,-1.01615965E-1,-4.2308677E-2,-4.0599647E-1,-7.787592E-5,4.427358E-3,2.7077142E-2,-7.376589E-3,-2.1141566E-2,3.5494764E-3,-3.8911056E-2,5.212611E-3],"categories":[],"categories_nodes":[],"categories_segments":[],"categories_sizes":[],"default_left":[0,0,0,0,0,0,0,0,0,0,0,0,0,0,0],"id":51,"left_children":[1,3,5,7,9,11,13,-1,-1,-1,-1,-1,-1,-1,-1],"loss_changes":[7.007061E0,5.4293084E0,7.56247E0,4.2068653E0,1.2837356E1,7.1435847E0,1.6794716E1,0E0,0E0,0E0,0E0,0E0,0E0,0E0,0E0],"parents":[2147483647,0,0,1,1,2,2,3,3,4,4,5,5,6,6],"right_children":[2,4,6,8,10,12,14,-1,-1,-1,-1,-1,-1,-1,-1],"split_conditions":[4E0,6.3E1,3E0,3E0,2E0,2E0,3E0,-7.787592E-5,4.427358E-3,2.7077142E-2,-7.376589E-3,-2.1141566E-2,3.5494764E-3,-3.8911056E-2,5.212611E-3],"split_indices":[14,3,5,14,5,5,1,0,0,0,0,0,0,0,0],"split_type":[0,0,0,0,0,0,0,0,0,0,0,0,0,0,0],"sum_hessian":[3.704E3,3.453E3,2.51E2,3.022E3,4.31E2,1.64E2,8.7E1,2.359E3,6.63E2,2.8E1,4.03E2,3.7E1,1.27E2,5E1,3.7E1],"tree_param":{"num_deleted":"0","num_feature":"19","num_nodes":"15","size_leaf_vector":"1"}},{"base_weights":[-4.4869203E-3,4.0693283E-2,-4.1366536E-2,6.465374E-2,-6.4158484E-2,1.8850389E-1,-5.419449E-2,-6.783505E-3,4.166123E-3,-2.2044783E-2,-3.6719453E-4,1.5737528E-2,-1.3586714E-2,-4.109332E-3,9.6180517E-4],"categories":[],"categories_nodes":[],"categories_segments":[],"categories_sizes":[],"default_left":[0,0,0,0,0,0,0,0,0,0,0,0,0,0,0],"id":52,"left_children":[1,3,5,7,9,11,13,-1,-1,-1,-1,-1,-1,-1,-1],"loss_changes":[6.2283797E0,4.224807E0,6.078779E0,5.1273346E0,6.6962676E0,6.4188128E0,4.0097647E0,0E0,0E0,0E0,0E0,0E0,0E0,0E0,0E0],"parents":[2147483647,0,0,1,1,2,2,3,3,4,4,5,5,6,6],"right_children":[2,4,6,8,10,12,14,-1,-1,-1,-1,-1,-1,-1,-1],"split_conditions":[1E0,6.1E1,1E0,2E0,1E0,2.017E3,5E0,-6.783505E-3,4.166123E-3,-2.2044783E-2,-3.6719453E-4,1.5737528E-2,-1.3586714E-2,-4.109332E-3,9.6180517E-4],"split_indices":[8,3,5,5,1,2,5,0,0,0,0,0,0,0,0],"split_type":[0,0,0,0,0,0,0,0,0,0,0,0,0,0,0],"sum_hessian":[3.736E3,1.679E3,2.057E3,1.367E3,3.12E2,1.08E2,1.949E3,1.16E2,1.251E3,4E1,2.72E2,8.5E1,2.3E1,1.411E3,5.38E2],"tree_param":{"num_deleted":"0","num_feature":"19","num_nodes":"15","size_leaf_vector":"1"}},{"base_weights":[-1.2415472E-2,6.4456966E-3,-7.319759E-2,-6.825399E-2,2.1689747E-2,-1.3248914E-1,5.870677E-2,-1.1269672E-2,-4.857498E-5,-1.63323E-3,2.6736138E-3,-2.8302455E-3,-1.1367279E-2,-4.168772E-2,5.469219E-3],"categories":[],"categories_nodes":[],"categories_segments":[],"categories_sizes":[],"default_left":[0,0,0,0,0,0,0,0,0,0,0,0,0,0,0],"id":53,"left_children":[1,3,5,7,9,11,13,-1,-1,-1,-1,-1,-1,-1,-1],"loss_changes":[4.31331E0,3.2719004E0,6.976124E0,5.148702E0,4.1236057E0,4.413967E0,1.2619298E1,0E0,0E0,0E0,0E0,0E0,0E0,0E0,0E0],"parents":[2147483647,0,0,1,1,2,2,3,3,4,4,5,5,6,6],"right_children":[2,4,6,8,10,12,14,-1,-1,-1,-1,-1,-1,-1,-1],"split_conditions":[4.5E1,1E0,4E0,1E0,9E1,3E0,2E0,-1.1269672E-2,-4.857498E-5,-1.63323E-3,2.6736138E-3,-2.8302455E-3,-1.1367279E-2,-4.168772E-2,5.469219E-3],"split_indices":[12,16,5,7,6,7,11,0,0,0,0,0,0,0,0],"split_type":[0,0,0,0,0,0,0,0,0,0,0,0,0,0,0],"sum_hessian":[3.761E3,2.871E3,8.9E2,4.86E2,2.385E3,6.14E2,2.76E2,1.45E2,3.41E2,8.8E2,1.505E3,3.42E2,2.72E2,1.4E1,2.62E2],"tree_param":{"num_deleted":"0","num_feature":"19","num_nodes":"15","size_leaf_vector":"1"}},{"base_weights":[-4.0544923E-3,3.3435125E-2,-3.9482992E-2,-1.3610789E-1,6.4269416E-2,-1.7180827E-1,-4.775858E-3,-6.046808E-3,-5.7825815E-2,-1.064798E-2,4.0787933E-3,-3.359489E-2,-4.93281E-3,-4.066447E-3,3.6547352E-3],"categories":[],"categories_nodes":[],"categories_segments":[],"categories_sizes":[],"default_left":[0,0,0,0,0,0,0,0,0,0,0,0,0,0,0],"id":54,"left_children":[1,3,5,7,9,11,13,-1,-1,-1,-1,-1,-1,-1,-1],"loss_changes":[4.986058E0,9.544144E0,8.862958E0,4.2103987E0,7.42525E0,1.4603329E1,9.126628E0,0E0,0E0,0E0,0E0,0E0,0E0,0E0,0E0],"parents":[2147483647,0,0,1,1,2,2,3,3,4,4,5,5,6,6],"right_children":[2,4,6,8,10,12,14,-1,-1,-1,-1,-1,-1,-1,-1],"split_conditions":[4.5E1,1E0,5.1E1,5.7E1,1E0,2E0,3E0,-6.046808E-3,-5.7825815E-2,-1.064798E-2,4.0787933E-3,-3.359489E-2,-4.93281E-3,-4.066447E-3,3.6547352E-3],"split_indices":[3,16,3,12,11,5,10,0,0,0,0,0,0,0,0],"split_type":[0,0,0,0,0,0,0,0,0,0,0,0,0,0,0],"sum_hessian":[3.752E3,1.823E3,1.929E3,2.8E2,1.543E3,4E2,1.529E3,2.77E2,3E0,9E1,1.453E3,5E1,3.5E2,7.71E2,7.58E2],"tree_param":{"num_deleted":"0","num_feature":"19","num_nodes":"15","size_leaf_vector":"1"}},{"base_weights":[1.1325461E-2,4.5274775E-2,-3.2653216E-2,3.5003237E-2,3.3600152E-1,-1.04622446E-1,2.7385656E-2,3.1534557E-3,-3.4265143E-3,8.950934E-3,3.781084E-2,-2.46825E-3,-1.1366728E-2,2.1835323E-3,-2.4375526E-2],"categories":[],"categories_nodes":[],"categories_segments":[],"categories_sizes":[],"default_left":[0,0,0,0,0,0,0,0,0,0,0,0,0,0,0],"id":55,"left_children":[1,3,5,7,9,11,13,-1,-1,-1,-1,-1,-1,-1,-1],"loss_changes":[5.5138044E0,6.211501E0,6.9552765E0,5.8565207E0,4.5482492E0,4.9522924E0,7.383389E0,0E0,0E0,0E0,0E0,0E0,0E0,0E0,0E0],"parents":[2147483647,0,0,1,1,2,2,3,3,4,4,5,5,6,6],"right_children":[2,4,6,8,10,12,14,-1,-1,-1,-1,-1,-1,-1,-1],"split_conditions":[3E0,6.3E1,2E0,2.017E3,6.6E1,2E0,4E0,3.1534557E-3,-3.4265143E-3,8.950934E-3,3.781084E-2,-2.46825E-3,-1.1366728E-2,2.1835323E-3,-2.4375526E-2],"split_indices":[7,12,14,2,3,0,0,0,0,0,0,0,0,0,0],"split_type":[0,0,0,0,0,0,0,0,0,0,0,0,0,0,0],"sum_hessian":[3.691E3,2.083E3,1.608E3,2.013E3,7E1,7.31E2,8.77E2,1.584E3,4.29E2,5.2E1,1.8E1,5.05E2,2.26E2,8.51E2,2.6E1],"tree_param":{"num_deleted":"0","num_feature":"19","num_nodes":"15","size_leaf_vector":"1"}},{"base_weights":[-8.048128E-3,1.5336914E-2,-6.7551814E-2,9.118036E-2,-1.4218418E-2,-2.5234096E-2,-1.8185505E-1,5.091818E-3,-4.536143E-2,2.567767E-3,-2.6112203E-3,-1.7657186E-3,4.1327633E-2,-5.0502284E-3,-1.6914649E-2],"categories":[],"categories_nodes":[],"categories_segments":[],"categories_sizes":[],"default_left":[0,0,0,0,0,0,0,0,0,0,0,0,0,0,0],"id":56,"left_children":[1,3,5,7,9,11,13,-1,-1,-1,-1,-1,-1,-1,-1],"loss_changes":[5.1690526E0,5.9795856E0,5.0646415E0,8.050389E0,4.7876973E0,6.6062512E0,3.5452375E0,0E0,0E0,0E0,0E0,0E0,0E0,0E0,0E0],"parents":[2147483647,0,0,1,1,2,2,3,3,4,4,5,5,6,6],"right_children":[2,4,6,8,10,12,14,-1,-1,-1,-1,-1,-1,-1,-1],"split_conditions":[2E0,3.6E1,5.3E1,5.8E1,2.015E3,3E0,5E1,5.091818E-3,-4.536143E-2,2.567767E-3,-2.6112203E-3,-1.7657186E-3,4.1327633E-2,-5.0502284E-3,-1.6914649E-2],"split_indices":[0,3,3,12,2,8,12,0,0,0,0,0,0,0,0],"split_type":[0,0,0,0,0,0,0,0,0,0,0,0,0,0,0],"sum_hessian":[3.713E3,2.666E3,1.047E3,7.47E2,1.919E3,7.65E2,2.82E2,7.4E2,7E0,7.04E2,1.215E3,7.57E2,8E0,1.87E2,9.5E1],"tree_param":{"num_deleted":"0","num_feature":"19","num_nodes":"15","size_leaf_vector":"1"}},{"base_weights":[-1.3532752E-2,-1.8191098E-1,-5.069626E-3,5.39402E-1,-2.1459281E-1,5.4735313E-3,-1.404635E-1,3.617578E-2,-1.8734822E-2,-1.4207035E-2,3.1884357E-3,9.3815026E-5,1.8011723E-2,-5.62958E-4,-1.893243E-2],"categories":[],"categories_nodes":[],"categories_segments":[],"categories_sizes":[],"default_left":[0,0,0,0,0,0,0,0,0,0,0,0,0,0,0],"id":57,"left_children":[1,3,5,7,9,11,13,-1,-1,-1,-1,-1,-1,-1,-1],"loss_changes":[5.3001013E0,4.3118925E0,5.0583262E0,1.6174822E0,3.3285866E0,4.1953273E0,7.8740225E0,0E0,0E0,0E0,0E0,0E0,0E0,0E0,0E0],"parents":[2147483647,0,0,1,1,2,2,3,3,4,4,5,5,6,6],"right_children":[2,4,6,8,10,12,14,-1,-1,-1,-1,-1,-1,-1,-1],"split_conditions":[1E0,2.1E1,4E0,2.016E3,2.017E3,6.8E1,3E0,3.617578E-2,-1.8734822E-2,-1.4207035E-2,3.1884357E-3,9.3815026E-5,1.8011723E-2,-5.62958E-4,-1.893243E-2],"split_indices":[11,12,14,2,2,12,5,0,0,0,0,0,0,0,0],"split_type":[0,0,0,0,0,0,0,0,0,0,0,0,0,0,0],"sum_hessian":[3.719E3,1.77E2,3.542E3,7E0,1.7E2,3.287E3,2.55E2,6E0,1E0,1.36E2,3.4E1,3.255E3,3.2E1,1.66E2,8.9E1],"tree_param":{"num_deleted":"0","num_feature":"19","num_nodes":"15","size_leaf_vector":"1"}},{"base_weights":[-1.1467127E-2,2.404553E-2,-3.3655502E-2,-2.1810617E-1,5.190839E-2,-7.690743E-2,1.8291101E-3,-1.3921772E-2,4.2868912E-2,-7.388924E-4,4.998755E-3,-1.2479163E-3,-1.3439434E-2,-3.8994642E-3,3.5214813E-3],"categories":[],"categories_nodes":[],"categories_segments":[],"categories_sizes":[],"default_left":[0,0,0,0,0,0,0,0,0,0,0,0,0,0,0],"id":58,"left_children":[1,3,5,7,9,11,13,-1,-1,-1,-1,-1,-1,-1,-1],"loss_changes":[2.8950167E0,9.544887E0,3.4702737E0,9.711671E0,4.06591E0,1.01507435E1,6.8116417E0,0E0,0E0,0E0,0E0,0E0,0E0,0E0,0E0],"parents":[2147483647,0,0,1,1,2,2,3,3,4,4,5,5,6,6],"right_children":[2,4,6,8,10,12,14,-1,-1,-1,-1,-1,-1,-1,-1],"split_conditions":[2.015E3,2E0,3E0,6.5E1,4.2E1,2E0,1E0,-1.3921772E-2,4.2868912E-2,-7.388924E-4,4.998755E-3,-1.2479163E-3,-1.3439434E-2,-3.8994642E-3,3.5214813E-3],"split_indices":[2,5,1,3,3,18,4,0,0,0,0,0,0,0,0],"split_type":[0,0,0,0,0,0,0,0,0,0,0,0,0,0,0],"sum_hessian":[3.672E3,1.412E3,2.26E3,1.45E2,1.267E3,1.018E3,1.242E3,1.38E2,7E0,5.31E2,7.36E2,8.02E2,2.16E2,5.74E2,6.68E2],"tree_param":{"num_deleted":"0","num_feature":"19","num_nodes":"15","size_leaf_vector":"1"}},{"base_weights":[1.1900845E-3,-4.1766323E-2,2.7262984E-2,-1.7018821E-2,-1.9053602E-1,2.0251546E-2,3.5915396E-1,-7.229786E-2,-7.320455E-4,-3.3423433E-3,-3.2859813E-2,3.5417823E-3,-1.3520257E-3,-1.7864423E-2,2.1620264E-2],"categories":[],"categories_nodes":[],"categories_segments":[],"categories_sizes":[],"default_left":[0,0,0,0,0,0,0,0,0,0,0,0,0,0,0],"id":59,"left_children":[1,3,5,7,9,11,13,-1,-1,-1,-1,-1,-1,-1,-1],"loss_changes":[4.1809716E0,5.1879234E0,5.398423E0,4.0902762E0,1.1557952E1,5.446622E0,2.6735506E0,0E0,0E0,0E0,0E0,0E0,0E0,0E0,0E0],"parents":[2147483647,0,0,1,1,2,2,3,3,4,4,5,5,6,6],"right_children":[2,4,6,8,10,12,14,-1,-1,-1,-1,-1,-1,-1,-1],"split_conditions":[9E1,1E0,6.5E1,1.4E1,2E0,4.1E1,5.3E1,-7.229786E-2,-7.320455E-4,-3.3423433E-3,-3.2859813E-2,3.5417823E-3,-1.3520257E-3,-1.7864423E-2,2.1620264E-2],"split_indices":[6,9,12,12,16,3,3,0,0,0,0,0,0,0,0],"split_type":[0,0,0,0,0,0,0,0,0,0,0,0,0,0,0],"sum_hessian":[3.731E3,1.409E3,2.322E3,1.209E3,2E2,2.275E3,4.7E1,1E0,1.208E3,1.59E2,4.1E1,1.099E3,1.176E3,4E0,4.3E1],"tree_param":{"num_deleted":"0","num_feature":"19","num_nodes":"15","size_leaf_vector":"1"}},{"base_weights":[-6.816489E-3,1.5288892E-2,-8.865314E-2,6.0244948E-2,-2.3646792E-2,-5.171525E-2,-2.9960263E-1,-1.03769264E-4,5.225369E-3,-1.5163806E-3,1.1458581E-2,7.197946E-3,-4.7514047E-3,8.779136E-3,-2.7581532E-2],"categories":[],"categories_nodes":[],"categories_segments":[],"categories_sizes":[],"default_left":[0,0,0,0,0,0,0,0,0,0,0,0,0,0,0],"id":60,"left_children":[1,3,5,7,9,11,13,-1,-1,-1,-1,-1,-1,-1,-1],"loss_changes":[6.8051186E0,5.1860943E0,6.2181296E0,3.7930837E0,2.6891363E0,5.7937703E0,1.4348297E1,0E0,0E0,0E0,0E0,0E0,0E0,0E0,0E0],"parents":[2147483647,0,0,1,1,2,2,3,3,4,4,5,5,6,6],"right_children":[2,4,6,8,10,12,14,-1,-1,-1,-1,-1,-1,-1,-1],"split_conditions":[2E0,1E0,4.4E1,1E0,2.018E3,2.014E3,1E0,-1.03769264E-4,5.225369E-3,-1.5163806E-3,1.1458581E-2,7.197946E-3,-4.7514047E-3,8.779136E-3,-2.7581532E-2],"split_indices":[18,8,12,4,2,2,0,0,0,0,0,0,0,0,0],"split_type":[0,0,0,0,0,0,0,0,0,0,0,0,0,0,0],"sum_hessian":[3.76E3,2.961E3,7.99E2,1.374E3,1.587E3,6.81E2,1.18E2,5.71E2,8.03E2,1.547E3,4E1,1.23E2,5.58E2,4.1E1,7.7E1],"tree_param":{"num_deleted":"0","num_feature":"19","num_nodes":"15","size_leaf_vector":"1"}},{"base_weights":[-1.46835195E-2,-5.211774E-3,-1.380805E-1,3.359843E-2,-3.272121E-2,-8.181103E-3,-3.6200717E-1,9.124806E-3,7.189171E-4,-3.5596036E-3,1.533665E-3,8.099954E-3,-8.429948E-3,-2.703686E-2,3.0569392E-3],"categories":[],"categories_nodes":[],"categories_segments":[],"categories_sizes":[],"default_left":[0,0,0,0,0,0,0,0,0,0,0,0,0,0,0],"id":61,"left_children":[1,3,5,7,9,11,13,-1,-1,-1,-1,-1,-1,-1,-1],"loss_changes":[4.377548E0,3.7165108E0,7.763519E0,4.129854E0,4.9701033E0,4.6683016E0,7.4446917E0,0E0,0E0,0E0,0E0,0E0,0E0,0E0,0E0],"parents":[2147483647,0,0,1,1,2,2,3,3,4,4,5,5,6,6],"right_children":[2,4,6,8,10,12,14,-1,-1,-1,-1,-1,-1,-1,-1],"split_conditions":[4E0,1E0,3E0,2.2E1,2E0,3E0,3E0,9.124806E-3,7.189171E-4,-3.5596036E-3,1.533665E-3,8.099954E-3,-8.429948E-3,-2.703686E-2,3.0569392E-3],"split_indices":[14,0,5,12,8,1,10,0,0,0,0,0,0,0,0],"split_type":[0,0,0,0,0,0,0,0,0,0,0,0,0,0,0],"sum_hessian":[3.745E3,3.479E3,2.66E2,1.443E3,2.036E3,1.69E2,9.7E1,1.64E2,1.279E3,1.267E3,7.69E2,8.2E1,8.7E1,6.8E1,2.9E1],"tree_param":{"num_deleted":"0","num_feature":"19","num_nodes":"15","size_leaf_vector":"1"}},{"base_weights":[1.107583E-2,2.1477634E-2,-1.2756394E-1,-1.344513E-1,3.030083E-2,-1.06146134E-1,-1.1943593E0,-3.9876834E-3,-3.984236E-2,-1.507932E-3,2.232152E-3,-2.0907413E-2,-1.8648681E-3,2.3246974E-2,-8.627094E-2],"categories":[],"categories_nodes":[],"categories_segments":[],"categories_sizes":[],"default_left":[0,0,0,0,0,0,0,0,0,0,0,0,0,0,0],"id":62,"left_children":[1,3,5,7,9,11,13,-1,-1,-1,-1,-1,-1,-1,-1],"loss_changes":[5.3515024E0,4.75193E0,5.790963E0,6.6392736E0,2.8342361E0,5.4620495E0,5.208148E0,0E0,0E0,0E0,0E0,0E0,0E0,0E0,0E0],"parents":[2147483647,0,0,1,1,2,2,3,3,4,4,5,5,6,6],"right_children":[2,4,6,8,10,12,14,-1,-1,-1,-1,-1,-1,-1,-1],"split_conditions":[4E0,1E0,5.2E1,6.1E1,1E0,2E0,4E1,-3.9876834E-3,-3.984236E-2,-1.507932E-3,2.232152E-3,-2.0907413E-2,-1.8648681E-3,2.3246974E-2,-8.627094E-2],"split_indices":[14,11,12,3,13,5,3,0,0,0,0,0,0,0,0],"split_type":[0,0,0,0,0,0,0,0,0,0,0,0,0,0,0],"sum_hessian":[3.708E3,3.45E3,2.58E2,1.84E2,3.266E3,2.54E2,4E0,1.71E2,1.3E1,6.26E2,2.64E3,4.5E1,2.09E2,1E0,3E0],"tree_param":{"num_deleted":"0","num_feature":"19","num_nodes":"15","size_leaf_vector":"1"}},{"base_weights":[6.560326E-3,3.552974E-2,-4.18659E-2,6.2453914E-2,-5.441812E-2,-1.6683032E-1,3.2161467E-3,1.4555249E-3,6.0201134E-3,-2.0060584E-2,-1.0487469E-3,-1.0561078E-4,-1.5890544E-2,2.510905E-3,-6.0675256E-3],"categories":[],"categories_nodes":[],"categories_segments":[],"categories_sizes":[],"default_left":[0,0,0,0,0,0,0,0,0,0,0,0,0,0,0],"id":63,"left_children":[1,3,5,7,9,11,13,-1,-1,-1,-1,-1,-1,-1,-1],"loss_changes":[5.201961E0,5.6219096E0,7.8200445E0,3.4473972E0,6.1964507E0,9.151207E0,5.9839225E0,0E0,0E0,0E0,0E0,0E0,0E0,0E0,0E0],"parents":[2147483647,0,0,1,1,2,2,3,3,4,4,5,5,6,6],"right_children":[2,4,6,8,10,12,14,-1,-1,-1,-1,-1,-1,-1,-1],"split_conditions":[3.6E1,2.017E3,2E0,3E0,2E1,4.1E1,5.9E1,1.4555249E-3,6.0201134E-3,-2.0060584E-2,-1.0487469E-3,-1.0561078E-4,-1.5890544E-2,2.510905E-3,-6.0675256E-3],"split_indices":[12,2,11,10,12,3,3,0,0,0,0,0,0,0,0],"split_type":[0,0,0,0,0,0,0,0,0,0,0,0,0,0,0],"sum_hessian":[3.706E3,2.319E3,1.387E3,1.785E3,5.34E2,3.67E2,1.02E3,1.134E3,6.51E2,4.6E1,4.88E2,1.76E2,1.91E2,7.41E2,2.79E2],"tree_param":{"num_deleted":"0","num_feature":"19","num_nodes":"15","size_leaf_vector":"1"}},{"base_weights":[-2.3844163E-4,-5.8904577E-2,1.5704837E-2,-2.1447912E-1,-2.579959E-2,-3.6269825E-2,5.0613526E-2,-2.2874778E-2,-4.6637245E-3,-7.32942E-5,-1.1296612E-2,-3.3259715E-3,6.3869543E-3,3.2437423E-3,-6.9878707E-3],"categories":[],"categories_nodes":[],"categories_segments":[],"categories_sizes":[],"default_left":[0,0,0,0,0,0,0,0,0,0,0,0,0,0,0],"id":64,"left_children":[1,3,5,7,9,11,13,-1,-1,-1,-1,-1,-1,-1,-1],"loss_changes":[3.471001E0,4.078649E0,5.2961597E0,4.051533E0,3.1894987E0,5.82799E0,4.749353E0,0E0,0E0,0E0,0E0,0E0,0E0,0E0,0E0],"parents":[2147483647,0,0,1,1,2,2,3,3,4,4,5,5,6,6],"right_children":[2,4,6,8,10,12,14,-1,-1,-1,-1,-1,-1,-1,-1],"split_conditions":[1E0,1E0,1E0,9E1,2E0,1E0,4E0,-2.2874778E-2,-4.6637245E-3,-7.32942E-5,-1.1296612E-2,-3.3259715E-3,6.3869543E-3,3.2437423E-3,-6.9878707E-3],"split_indices":[13,16,14,6,9,9,14,0,0,0,0,0,0,0,0],"split_type":[0,0,0,0,0,0,0,0,0,0,0,0,0,0,0],"sum_hessian":[3.709E3,7.92E2,2.917E3,1.38E2,6.54E2,1.172E3,1.745E3,4.5E1,9.3E1,5.84E2,7E1,9.9E2,1.82E2,1.624E3,1.21E2],"tree_param":{"num_deleted":"0","num_feature":"19","num_nodes":"15","size_leaf_vector":"1"}},{"base_weights":[1.9987496E-3,8.283623E-3,-2.0479724E-1,2.7231334E-2,-6.0616724E-2,-1.1270367E-1,-7.445588E-1,3.0980404E-3,-1.9113764E-5,-1.1655261E-3,-1.5287632E-2,3.1444149E-3,-1.3124543E-2,1.4451252E-2,-5.565861E-2],"categories":[],"categories_nodes":[],"categories_segments":[],"categories_sizes":[],"default_left":[0,0,0,0,0,0,0,0,0,0,0,0,0,0,0],"id":65,"left_children":[1,3,5,7,9,11,13,-1,-1,-1,-1,-1,-1,-1,-1],"loss_changes":[4.891118E0,4.7693505E0,5.4337363E0,2.7475758E0,7.1992035E0,2.5414448E0,6.4176207E0,0E0,0E0,0E0,0E0,0E0,0E0,0E0,0E0],"parents":[2147483647,0,0,1,1,2,2,3,3,4,4,5,5,6,6],"right_children":[2,4,6,8,10,12,14,-1,-1,-1,-1,-1,-1,-1,-1],"split_conditions":[4E0,2E0,5.3E1,4.3E1,2E0,2E0,1E0,3.0980404E-3,-1.9113764E-5,-1.1655261E-3,-1.5287632E-2,3.1444149E-3,-1.3124543E-2,1.4451252E-2,-5.565861E-2],"split_indices":[0,18,3,3,11,11,7,0,0,0,0,0,0,0,0],"split_type":[0,0,0,0,0,0,0,0,0,0,0,0,0,0,0],"sum_hessian":[3.761E3,3.651E3,1.1E2,2.864E3,7.87E2,9.5E1,1.5E1,1.268E3,1.596E3,6.84E2,1.03E2,4.4E1,5.1E1,4E0,1.1E1],"tree_param":{"num_deleted":"0","num_feature":"19","num_nodes":"15","size_leaf_vector":"1"}},{"base_weights":[6.2869396E-3,2.9048198E-3,3.9042822E-1,3.8417464E-4,3.5045958E-1,-4.6022984E-1,5.236304E-1,1.5227852E-3,-1.2120007E-3,2.9155815E-2,-5.1684272E-3,1.9822253E-2,-3.8675494E-2,-1.9251375E-2,3.2164212E-2],"categories":[],"categories_nodes":[],"categories_segments":[],"categories_sizes":[],"default_left":[0,0,0,0,0,0,0,0,0,0,0,0,0,0,0],"id":66,"left_children":[1,3,5,7,9,11,13,-1,-1,-1,-1,-1,-1,-1,-1],"loss_changes":[4.912484E0,3.2850986E0,3.9802027E0,2.7583115E0,2.9111025E0,1.6485494E0,3.400691E0,0E0,0E0,0E0,0E0,0E0,0E0,0E0,0E0],"parents":[2147483647,0,0,1,1,2,2,3,3,4,4,5,5,6,6],"right_children":[2,4,6,8,10,12,14,-1,-1,-1,-1,-1,-1,-1,-1],"split_conditions":[6.8E1,7.2E1,5.5E1,1E0,2.017E3,1E0,1E0,1.5227852E-3,-1.2120007E-3,2.9155815E-2,-5.1684272E-3,1.9822253E-2,-3.8675494E-2,-1.9251375E-2,3.2164212E-2],"split_indices":[12,3,3,8,2,1,10,0,0,0,0,0,0,0,0],"split_type":[0,0,0,0,0,0,0,0,0,0,0,0,0,0,0],"sum_hessian":[3.781E3,3.749E3,3.2E1,3.723E3,2.6E1,4E0,2.8E1,1.676E3,2.047E3,1.7E1,9E0,1E0,3E0,3E0,2.5E1],"tree_param":{"num_deleted":"0","num_feature":"19","num_nodes":"15","size_leaf_vector":"1"}},{"base_weights":[6.5414635E-3,3.656216E-2,-3.1720247E-2,5.1465254E-2,-8.812398E-2,1.9906212E-1,-4.085025E-2,2.3448288E-3,1.816376E-2,-2.645645E-2,-2.125899E-3,-1.0064486E-2,1.81838E-2,-1.000679E-3,-5.609238E-3],"categories":[],"categories_nodes":[],"categories_segments":[],"categories_sizes":[],"default_left":[0,0,0,0,0,0,0,0,0,0,0,0,0,0,0],"id":67,"left_children":[1,3,5,7,9,11,13,-1,-1,-1,-1,-1,-1,-1,-1],"loss_changes":[4.313166E0,3.914208E0,3.4868598E0,2.6611362E0,4.5028086E0,4.2251225E0,2.3596022E0,0E0,0E0,0E0,0E0,0E0,0E0,0E0,0E0],"parents":[2147483647,0,0,1,1,2,2,3,3,4,4,5,5,6,6],"right_children":[2,4,6,8,10,12,14,-1,-1,-1,-1,-1,-1,-1,-1],"split_conditions":[3E0,3E0,1E0,1E0,2.014E3,3.3E1,2E0,2.3448288E-3,1.816376E-2,-2.645645E-2,-2.125899E-3,-1.0064486E-2,1.81838E-2,-1.000679E-3,-5.609238E-3],"split_indices":[7,17,5,17,2,3,18,0,0,0,0,0,0,0,0],"split_type":[0,0,0,0,0,0,0,0,0,0,0,0,0,0,0],"sum_hessian":[3.753E3,2.103E3,1.65E3,1.879E3,2.24E2,6.2E1,1.588E3,1.853E3,2.6E1,2E1,2.04E2,1.8E1,4.4E1,1.23E3,3.58E2],"tree_param":{"num_deleted":"0","num_feature":"19","num_nodes":"15","size_leaf_vector":"1"}},{"base_weights":[-5.1882407E-3,-3.930968E-3,-7.924236E-1,-8.695929E-3,1.2314019E-1,1.3941896E-2,-1.0624435E0,3.3766977E-4,-3.3775826E-3,-2.239751E-3,1.3222401E-2,-2.0764928E-2,-6.777203E-2],"categories":[],"categories_nodes":[],"categories_segments":[],"categories_sizes":[],"default_left":[0,0,0,0,0,0,0,0,0,0,0,0,0],"id":68,"left_children":[1,3,5,7,9,-1,11,-1,-1,-1,-1,-1,-1],"loss_changes":[3.7243552E0,2.2783153E0,2.0318215E0,3.2975094E0,3.2392013E0,0E0,3.8514566E-1,0E0,0E0,0E0,0E0,0E0,0E0],"parents":[2147483647,0,0,1,1,2,2,3,3,4,4,6,6],"right_children":[2,4,6,8,10,-1,12,-1,-1,-1,-1,-1,-1],"split_conditions":[7.2E1,2.018E3,1E0,2.017E3,2.9E1,1.3941896E-2,3E0,3.3766977E-4,-3.3775826E-3,-2.239751E-3,1.3222401E-2,-2.0764928E-2,-6.777203E-2],"split_indices":[12,2,4,2,12,0,1,0,0,0,0,0,0],"split_type":[0,0,0,0,0,0,0,0,0,0,0,0,0],"sum_hessian":[3.765E3,3.76E3,5E0,3.625E3,1.35E2,1E0,4E0,2.872E3,7.53E2,6.2E1,7.3E1,2E0,2E0],"tree_param":{"num_deleted":"0","num_feature":"19","num_nodes":"13","size_leaf_vector":"1"}},{"base_weights":[5.3498927E-3,2.2126984E-2,-3.7713755E-2,5.9758604E-2,-3.838305E-2,3.1806308E-1,-6.2412232E-2,-1.5392826E-3,4.4000903E-3,-7.21547E-3,1.8495234E-3,4.0224306E-2,8.260861E-3,-2.0853586E-3,-1.2291338E-2],"categories":[],"categories_nodes":[],"categories_segments":[],"categories_sizes":[],"default_left":[0,0,0,0,0,0,0,0,0,0,0,0,0,0,0],"id":69,"left_children":[1,3,5,7,9,11,13,-1,-1,-1,-1,-1,-1,-1,-1],"loss_changes":[2.692805E0,6.1094513E0,9.202419E0,4.2324166E0,8.220917E0,4.9227314E0,3.7038088E0,0E0,0E0,0E0,0E0,0E0,0E0,0E0,0E0],"parents":[2147483647,0,0,1,1,2,2,3,3,4,4,5,5,6,6],"right_children":[2,4,6,8,10,12,14,-1,-1,-1,-1,-1,-1,-1,-1],"split_conditions":[2E0,3E0,2.1E1,1E0,5E0,2E0,1E0,-1.5392826E-3,4.4000903E-3,-7.21547E-3,1.8495234E-3,4.0224306E-2,8.260861E-3,-2.0853586E-3,-1.2291338E-2],"split_indices":[16,5,12,16,5,1,9,0,0,0,0,0,0,0,0],"split_type":[0,0,0,0,0,0,0,0,0,0,0,0,0,0,0],"sum_hessian":[3.725E3,2.681E3,1.044E3,1.653E3,1.028E3,6.7E1,9.77E2,3.93E2,1.26E3,4.27E2,6.01E2,1.5E1,5.2E1,8.79E2,9.8E1],"tree_param":{"num_deleted":"0","num_feature":"19","num_nodes":"15","size_leaf_vector":"1"}},{"base_weights":[-5.070242E-4,-2.7233902E-2,7.704026E-2,-2.3998344E-2,-2.2804623E0,5.373257E-2,3.270848E-1,-8.0125453E-4,-1.3168615E-2,-1.0795486E-2,-1.4483383E-1,-3.55252E-3,4.5783366E-3,2.9271899E-2,7.0572086E-3],"categories":[],"categories_nodes":[],"categories_segments":[],"categories_sizes":[],"default_left":[0,0,0,0,0,0,0,0,0,0,0,0,0,0,0],"id":70,"left_children":[1,3,5,7,9,11,13,-1,-1,-1,-1,-1,-1,-1,-1],"loss_changes":[7.7950625E0,2.0336662E1,5.6005793E0,5.3283787E0,4.4634037E0,4.175201E0,3.856513E0,0E0,0E0,0E0,0E0,0E0,0E0,0E0,0E0],"parents":[2147483647,0,0,1,1,2,2,3,3,4,4,5,5,6,6],"right_children":[2,4,6,8,10,12,14,-1,-1,-1,-1,-1,-1,-1,-1],"split_conditions":[5E0,4E0,6.1E1,4E0,2E0,1E0,3E0,-8.0125453E-4,-1.3168615E-2,-1.0795486E-2,-1.4483383E-1,-3.55252E-3,4.5783366E-3,2.9271899E-2,7.0572086E-3],"split_indices":[5,5,12,0,18,7,16,0,0,0,0,0,0,0,0],"split_type":[0,0,0,0,0,0,0,0,0,0,0,0,0,0,0],"sum_hessian":[3.759E3,2.796E3,9.63E2,2.793E3,3E0,8.82E2,8.1E1,2.704E3,8.9E1,1E0,2E0,2.05E2,6.77E2,3.3E1,4.8E1],"tree_param":{"num_deleted":"0","num_feature":"19","num_nodes":"15","size_leaf_vector":"1"}},{"base_weights":[-1.5342335E-4,1.056182E-2,-1.4620075E-1,3.0769443E-2,-2.9514415E-2,-1.2570293E-1,-1.141851E0,6.2171504E-4,5.330986E-3,2.5928937E-4,-1.0233451E-2,-3.364304E-3,-1.9883541E-2,2.2907335E-2,-8.281936E-2],"categories":[],"categories_nodes":[],"categories_segments":[],"categories_sizes":[],"default_left":[0,0,0,0,0,0,0,0,0,0,0,0,0,0,0],"id":71,"left_children":[1,3,5,7,9,11,13,-1,-1,-1,-1,-1,-1,-1,-1],"loss_changes":[5.815269E0,2.8045933E0,5.040262E0,3.2001247E0,7.0575037E0,3.9451196E0,4.8751516E0,0E0,0E0,0E0,0E0,0E0,0E0,0E0,0E0],"parents":[2147483647,0,0,1,1,2,2,3,3,4,4,5,5,6,6],"right_children":[2,4,6,8,10,12,14,-1,-1,-1,-1,-1,-1,-1,-1],"split_conditions":[4E0,4E1,5.1E1,5.9E1,6.2E1,1E0,4E1,6.2171504E-4,5.330986E-3,2.5928937E-4,-1.0233451E-2,-3.364304E-3,-1.9883541E-2,2.2907335E-2,-8.281936E-2],"split_indices":[14,12,12,3,3,9,3,0,0,0,0,0,0,0,0],"split_type":[0,0,0,0,0,0,0,0,0,0,0,0,0,0,0],"sum_hessian":[3.714E3,3.461E3,2.53E2,2.301E3,1.16E3,2.49E2,4E0,1.854E3,4.47E2,9.69E2,1.91E2,2.06E2,4.3E1,1E0,3E0],"tree_param":{"num_deleted":"0","num_feature":"19","num_nodes":"15","size_leaf_vector":"1"}},{"base_weights":[-4.7699898E-3,1.4805005E-2,-6.918773E-2,-3.815311E-2,5.3734012E-2,-9.9674934E-1,-6.0568996E-2,-8.105065E-3,-1.3987786E-5,4.836967E-3,-9.442608E-4,6.9490946E-3,-6.99245E-2,6.92059E-4,-8.143499E-3],"categories":[],"categories_nodes":[],"categories_segments":[],"categories_sizes":[],"default_left":[0,0,0,0,0,0,0,0,0,0,0,0,0,0,0],"id":72,"left_children":[1,3,5,7,9,11,13,-1,-1,-1,-1,-1,-1,-1,-1],"loss_changes":[4.7397757E0,5.9456625E0,6.942729E0,5.7364297E0,5.1922765E0,3.844521E0,6.6172857E0,0E0,0E0,0E0,0E0,0E0,0E0,0E0,0E0],"parents":[2147483647,0,0,1,1,2,2,3,3,4,4,5,5,6,6],"right_children":[2,4,6,8,10,12,14,-1,-1,-1,-1,-1,-1,-1,-1],"split_conditions":[3E0,1E0,2.012E3,2E0,5.3E1,2E1,3E0,-8.105065E-3,-1.3987786E-5,4.836967E-3,-9.442608E-4,6.9490946E-3,-6.99245E-2,6.92059E-4,-8.143499E-3],"split_indices":[0,4,2,15,3,12,7,0,0,0,0,0,0,0,0],"split_type":[0,0,0,0,0,0,0,0,0,0,0,0,0,0,0],"sum_hessian":[3.757E3,2.882E3,8.75E2,1.221E3,1.661E3,7E0,8.68E2,2.85E2,9.36E2,1.043E3,6.18E2,2E0,5E0,5.03E2,3.65E2],"tree_param":{"num_deleted":"0","num_feature":"19","num_nodes":"15","size_leaf_vector":"1"}},{"base_weights":[4.214215E-4,-1.8863235E-2,9.019011E-2,-6.4861126E-2,7.990606E-3,8.407739E-3,2.3729256E-1,-5.6525227E-3,3.0738204E-3,3.0842994E-3,-1.8954402E-3,1.9010402E-2,-1.4155636E-3,-6.270515E-2,1.3104518E-2],"categories":[],"categories_nodes":[],"categories_segments":[],"categories_sizes":[],"default_left":[0,0,0,0,0,0,0,0,0,0,0,0,0,0,0],"id":73,"left_children":[1,3,5,7,9,11,13,-1,-1,-1,-1,-1,-1,-1,-1],"loss_changes":[6.4121804E0,3.7667046E0,7.8779078E0,6.849997E0,4.7491317E0,5.7719674E0,8.982783E0,0E0,0E0,0E0,0E0,0E0,0E0,0E0,0E0],"parents":[2147483647,0,0,1,1,2,2,3,3,4,4,5,5,6,6],"right_children":[2,4,6,8,10,12,14,-1,-1,-1,-1,-1,-1,-1,-1],"split_conditions":[5E1,9E1,4E0,5E0,2E0,1E0,2E0,-5.6525227E-3,3.0738204E-3,3.0842994E-3,-1.8954402E-3,1.9010402E-2,-1.4155636E-3,-6.270515E-2,1.3104518E-2],"split_indices":[12,6,5,5,7,1,11,0,0,0,0,0,0,0,0],"split_type":[0,0,0,0,0,0,0,0,0,0,0,0,0,0,0],"sum_hessian":[3.702E3,3.048E3,6.54E2,1.123E3,1.925E3,4.21E2,2.33E2,8.13E2,3.1E2,8.87E2,1.038E3,3.7E1,3.84E2,3E0,2.3E2],"tree_param":{"num_deleted":"0","num_feature":"19","num_nodes":"15","size_leaf_vector":"1"}},{"base_weights":[6.097002E-3,3.913149E-2,-1.433654E-2,4.2570148E-2,-5.999859E-2,-1.7619321E-2,3.6357188E-1,1.1302075E-2,1.1477798E-3,1.3404216E-4,-3.6282528E-3,2.7563727E-2,-8.314009E-3],"categories":[],"categories_nodes":[],"categories_segments":[],"categories_sizes":[],"default_left":[0,0,0,0,0,0,0,0,0,0,0,0,0],"id":74,"left_children":[1,3,5,7,-1,9,11,-1,-1,-1,-1,-1,-1],"loss_changes":[2.5311792E0,6.156885E0,2.8808546E0,5.1409645E0,0E0,2.563401E0,2.080759E0,0E0,0E0,0E0,0E0,0E0,0E0],"parents":[2147483647,0,0,1,1,2,2,3,3,5,5,6,6],"right_children":[2,4,6,8,-1,10,12,-1,-1,-1,-1,-1,-1],"split_conditions":[2.015E3,7.1E1,6.8E1,2.2E1,-5.999859E-2,2E0,7.2E1,1.1302075E-2,1.1477798E-3,1.3404216E-4,-3.6282528E-3,2.7563727E-2,-8.314009E-3],"split_indices":[2,12,12,12,0,0,12,0,0,0,0,0,0],"split_type":[0,0,0,0,0,0,0,0,0,0,0,0,0],"sum_hessian":[3.748E3,1.432E3,2.316E3,1.429E3,3E0,2.297E3,1.9E1,1.37E2,1.292E3,1.678E3,6.19E2,1.4E1,5E0],"tree_param":{"num_deleted":"0","num_feature":"19","num_nodes":"13","size_leaf_vector":"1"}},{"base_weights":[3.1617812E-3,3.0739395E-2,-3.3066582E-2,2.2693563E-2,2.8225443E-1,-2.440093E-2,-3.5868543E-1,1.4266591E-3,-2.6071122E-2,8.218686E-3,3.5417806E-2,7.6683465E-4,-3.877202E-3,-2.740009E-2,-2.4021808E-3],"categories":[],"categories_nodes":[],"categories_segments":[],"categories_sizes":[],"default_left":[0,0,0,0,0,0,0,0,0,0,0,0,0,0,0],"id":75,"left_children":[1,3,5,7,9,11,13,-1,-1,-1,-1,-1,-1,-1,-1],"loss_changes":[3.7516067E0,4.308011E0,4.5708647E0,6.582625E0,3.1986904E0,3.3420265E0,2.4436746E0,0E0,0E0,0E0,0E0,0E0,0E0,0E0,0E0],"parents":[2147483647,0,0,1,1,2,2,3,3,4,4,5,5,6,6],"right_children":[2,4,6,8,10,12,14,-1,-1,-1,-1,-1,-1,-1,-1],"split_conditions":[3E0,6.8E1,4E0,6.7E1,6.3E1,3.4E1,9E1,1.4266591E-3,-2.6071122E-2,8.218686E-3,3.5417806E-2,7.6683465E-4,-3.877202E-3,-2.740009E-2,-2.4021808E-3],"split_indices":[7,3,0,3,12,12,6,0,0,0,0,0,0,0,0],"split_type":[0,0,0,0,0,0,0,0,0,0,0,0,0,0,0],"sum_hessian":[3.753E3,2.131E3,1.622E3,2.066E3,6.5E1,1.581E3,4.1E1,2.045E3,2.1E1,5.2E1,1.3E1,9.05E2,6.76E2,2.5E1,1.6E1],"tree_param":{"num_deleted":"0","num_feature":"19","num_nodes":"15","size_leaf_vector":"1"}},{"base_weights":[-1.2897828E-2,9.979402E-2,-2.2148324E-2,-2.7606708E-1,1.76141E-1,7.264267E-3,-6.021075E-2,-5.6571074E-2,4.403216E-4,4.490634E-3,2.1321751E-2,4.5989707E-4,-4.6498317E-2,-2.4121348E-3,-2.3188809E-2],"categories":[],"categories_nodes":[],"categories_segments":[],"categories_sizes":[],"default_left":[0,0,0,0,0,0,0,0,0,0,0,0,0,0,0],"id":76,"left_children":[1,3,5,7,9,11,13,-1,-1,-1,-1,-1,-1,-1,-1],"loss_changes":[3.8749325E0,8.14086E0,3.8448505E0,1.1706018E1,5.0394545E0,3.520787E0,7.2079773E0,0E0,0E0,0E0,0E0,0E0,0E0,0E0,0E0],"parents":[2147483647,0,0,1,1,2,2,3,3,4,4,5,5,6,6],"right_children":[2,4,6,8,10,12,14,-1,-1,-1,-1,-1,-1,-1,-1],"split_conditions":[2.1E1,1E0,3E0,1E0,2E0,7.2E1,4E0,-5.6571074E-2,4.403216E-4,4.490634E-3,2.1321751E-2,4.5989707E-4,-4.6498317E-2,-2.4121348E-3,-2.3188809E-2],"split_indices":[12,16,7,13,16,12,0,0,0,0,0,0,0,0,0],"split_type":[0,0,0,0,0,0,0,0,0,0,0,0,0,0,0],"sum_hessian":[3.714E3,2.81E2,3.433E3,4.7E1,2.34E2,1.937E3,1.496E3,1.1E1,3.6E1,1.75E2,5.9E1,1.934E3,3E0,1.454E3,4.2E1],"tree_param":{"num_deleted":"0","num_feature":"19","num_nodes":"15","size_leaf_vector":"1"}},{"base_weights":[1.7646543E-3,-4.6329405E-3,1.7273323E-1,-3.813485E-2,2.7901758E-2,4.2707646E-1,8.95676E-2,9.501949E-3,-2.5064272E-3,2.7041908E-3,-6.053734E-3,2.9064244E-2,7.2559267E-3,1.6239488E-2,1.9646785E-3],"categories":[],"categories_nodes":[],"categories_segments":[],"categories_sizes":[],"default_left":[0,0,0,0,0,0,0,0,0,0,0,0,0,0,0],"id":77,"left_children":[1,3,5,7,9,11,13,-1,-1,-1,-1,-1,-1,-1,-1],"loss_changes":[4.093754E0,3.9336925E0,2.8173509E0,4.8752832E0,7.148381E0,1.3504939E0,1.205271E0,0E0,0E0,0E0,0E0,0E0,0E0,0E0,0E0],"parents":[2147483647,0,0,1,1,2,2,3,3,4,4,5,5,6,6],"right_children":[2,4,6,8,10,12,14,-1,-1,-1,-1,-1,-1,-1,-1],"split_conditions":[2.018E3,3E0,3E0,1E0,3E0,6E1,1E0,9.501949E-3,-2.5064272E-3,2.7041908E-3,-6.053734E-3,2.9064244E-2,7.2559267E-3,1.6239488E-2,1.9646785E-3],"split_indices":[2,1,1,5,0,3,16,0,0,0,0,0,0,0,0],"split_type":[0,0,0,0,0,0,0,0,0,0,0,0,0,0,0],"sum_hessian":[3.741E3,3.607E3,1.34E2,1.777E3,1.83E3,3.2E1,1.02E2,8.8E1,1.689E3,1.557E3,2.73E2,2E1,1.2E1,1.7E1,8.5E1],"tree_param":{"num_deleted":"0","num_feature":"19","num_nodes":"15","size_leaf_vector":"1"}},{"base_weights":[6.045002E-3,1.2665486E-1,-3.963836E-3,1.0204872E-1,5.6440264E-1,-1.5024808E-1,3.953093E-3,-4.4936817E-3,7.337258E-3,4.631352E-2,1.101193E-2,-5.3460696E-3,-3.0552411E-2,1.9679493E-3,-1.4175572E-3],"categories":[],"categories_nodes":[],"categories_segments":[],"categories_sizes":[],"default_left":[0,0,0,0,0,0,0,0,0,0,0,0,0,0,0],"id":78,"left_children":[1,3,5,7,9,11,13,-1,-1,-1,-1,-1,-1,-1,-1],"loss_changes":[4.50564E0,3.0229917E0,3.9926405E0,2.346471E0,1.6641269E0,3.4684606E0,3.742356E0,0E0,0E0,0E0,0E0,0E0,0E0,0E0,0E0],"parents":[2147483647,0,0,1,1,2,2,3,3,4,4,5,5,6,6],"right_children":[2,4,6,8,10,12,14,-1,-1,-1,-1,-1,-1,-1,-1],"split_conditions":[2.1E1,6.6E1,1E0,1E0,9E1,6E1,4.6E1,-4.4936817E-3,7.337258E-3,4.631352E-2,1.101193E-2,-5.3460696E-3,-3.0552411E-2,1.9679493E-3,-1.4175572E-3],"split_indices":[12,3,11,16,6,3,3,0,0,0,0,0,0,0,0],"split_type":[0,0,0,0,0,0,0,0,0,0,0,0,0,0,0],"sum_hessian":[3.731E3,2.85E2,3.446E3,2.71E2,1.4E1,1.76E2,3.27E3,5.1E1,2.2E2,6E0,8E0,1.62E2,1.4E1,1.56E3,1.71E3],"tree_param":{"num_deleted":"0","num_feature":"19","num_nodes":"15","size_leaf_vector":"1"}},{"base_weights":[-4.757678E-3,-2.4112094E-2,5.001227E-2,-9.256811E-2,1.4490005E-2,3.0128228E-2,3.0415973E-1,-4.218434E-3,-1.3946941E-1,1.6003045E-3,-7.1865707E-3,4.5879325E-3,-6.818088E-4,2.7665889E-2,3.0124558E-3],"categories":[],"categories_nodes":[],"categories_segments":[],"categories_sizes":[],"default_left":[0,0,0,0,0,0,0,0,0,0,0,0,0,0,0],"id":79,"left_children":[1,3,5,7,9,11,13,-1,-1,-1,-1,-1,-1,-1,-1],"loss_changes":[3.9784775E0,7.3291206E0,4.943246E0,2.1877047E1,4.921098E0,2.45572E0,4.281497E0,0E0,0E0,0E0,0E0,0E0,0E0,0E0,0E0],"parents":[2147483647,0,0,1,1,2,2,3,3,4,4,5,5,6,6],"right_children":[2,4,6,8,10,12,14,-1,-1,-1,-1,-1,-1,-1,-1],"split_conditions":[5E0,9E1,6.1E1,4E0,5.3E1,9E1,1E0,-4.218434E-3,-1.3946941E-1,1.6003045E-3,-7.1865707E-3,4.5879325E-3,-6.818088E-4,2.7665889E-2,3.0124558E-3],"split_indices":[5,6,12,5,12,6,0,0,0,0,0,0,0,0,0],"split_type":[0,0,0,0,0,0,0,0,0,0,0,0,0,0,0],"sum_hessian":[3.751E3,2.772E3,9.79E2,9.99E2,1.773E3,9.09E2,7E1,9.97E2,2E0,1.597E3,1.76E2,3.77E2,5.32E2,3.4E1,3.6E1],"tree_param":{"num_deleted":"0","num_feature":"19","num_nodes":"15","size_leaf_vector":"1"}},{"base_weights":[-2.191863E-3,1.32892635E-2,-6.0352165E-2,4.795418E-2,-1.6535364E-2,1.4604941E-1,-1.05981916E-1,3.900947E-3,-2.4555793E-3,-1.065103E-4,-7.0449314E-3,-1.7594745E-2,1.082925E-2,-2.202512E-2,-3.908077E-3],"categories":[],"categories_nodes":[],"categories_segments":[],"categories_sizes":[],"default_left":[0,0,0,0,0,0,0,0,0,0,0,0,0,0,0],"id":80,"left_children":[1,3,5,7,9,11,13,-1,-1,-1,-1,-1,-1,-1,-1],"loss_changes":[3.3493414E0,3.0382977E0,7.3803954E0,3.9697459E0,2.8302264E0,5.063651E0,5.931026E0,0E0,0E0,0E0,0E0,0E0,0E0,0E0,0E0],"parents":[2147483647,0,0,1,1,2,2,3,3,4,4,5,5,6,6],"right_children":[2,4,6,8,10,12,14,-1,-1,-1,-1,-1,-1,-1,-1],"split_conditions":[2E0,1E0,2.014E3,2.017E3,4E0,1E0,2E0,3.900947E-3,-2.4555793E-3,-1.065103E-4,-7.0449314E-3,-1.7594745E-2,1.082925E-2,-2.202512E-2,-3.908077E-3],"split_indices":[18,8,2,2,14,11,5,0,0,0,0,0,0,0,0],"split_type":[0,0,0,0,0,0,0,0,0,0,0,0,0,0,0],"sum_hessian":[3.718E3,2.937E3,7.81E2,1.358E3,1.579E3,1.41E2,6.4E2,1.037E3,3.21E2,1.416E3,1.63E2,1.7E1,1.24E2,4.8E1,5.92E2],"tree_param":{"num_deleted":"0","num_feature":"19","num_nodes":"15","size_leaf_vector":"1"}},{"base_weights":[6.4334646E-3,-3.7751455E-2,3.4017425E-2,-1.0463309E-1,1.8790102E-2,2.822446E-1,2.6098974E-2,-1.5263436E-3,-9.757994E-3,1.4835108E-3,-2.5095487E-2,-1.2945932E-2,2.0985216E-2,4.8450287E-3,-1.671689E-4],"categories":[],"categories_nodes":[],"categories_segments":[],"categories_sizes":[],"default_left":[0,0,0,0,0,0,0,0,0,0,0,0,0,0,0],"id":81,"left_children":[1,3,5,7,9,11,13,-1,-1,-1,-1,-1,-1,-1,-1],"loss_changes":[4.553484E0,5.4323325E0,4.5134563E0,4.408299E0,4.4281397E0,5.3902283E0,4.648905E0,0E0,0E0,0E0,0E0,0E0,0E0,0E0,0E0],"parents":[2147483647,0,0,1,1,2,2,3,3,4,4,5,5,6,6],"right_children":[2,4,6,8,10,12,14,-1,-1,-1,-1,-1,-1,-1,-1],"split_conditions":[1E0,1E0,1E0,3E0,7E1,2.014E3,3.4E1,-1.5263436E-3,-9.757994E-3,1.4835108E-3,-2.5095487E-2,-1.2945932E-2,2.0985216E-2,4.8450287E-3,-1.671689E-4],"split_indices":[14,4,5,7,3,2,3,0,0,0,0,0,0,0,0],"split_type":[0,0,0,0,0,0,0,0,0,0,0,0,0,0,0],"sum_hessian":[3.734E3,1.435E3,2.299E3,6.57E2,7.78E2,7E1,2.229E3,3.62E2,2.95E2,7.63E2,1.5E1,1.4E1,5.6E1,6.54E2,1.575E3],"tree_param":{"num_deleted":"0","num_feature":"19","num_nodes":"15","size_leaf_vector":"1"}},{"base_weights":[4.7089714E-3,1.3637508E-2,-1.1998915E-1,-6.041474E-4,5.9682816E-2,-9.9776626E-2,-1.0944903E0,1.3117065E-2,-3.674344E-4,-6.27016E-2,3.620562E-3,1.1976653E-3,-1.1653279E-2,2.2289395E-2,-7.955034E-2],"categories":[],"categories_nodes":[],"categories_segments":[],"categories_sizes":[],"default_left":[0,0,0,0,0,0,0,0,0,0,0,0,0,0,0],"id":82,"left_children":[1,3,5,7,9,11,13,-1,-1,-1,-1,-1,-1,-1,-1],"loss_changes":[4.1823473E0,2.29848E0,4.834775E0,4.751217E0,1.3936222E1,4.0790653E0,4.5331187E0,0E0,0E0,0E0,0E0,0E0,0E0,0E0,0E0],"parents":[2147483647,0,0,1,1,2,2,3,3,4,4,5,5,6,6],"right_children":[2,4,6,8,10,12,14,-1,-1,-1,-1,-1,-1,-1,-1],"split_conditions":[4E0,2E0,5.2E1,2.013E3,2.012E3,2E0,4E1,1.3117065E-2,-3.674344E-4,-6.27016E-2,3.620562E-3,1.1976653E-3,-1.1653279E-2,2.2289395E-2,-7.955034E-2],"split_indices":[14,8,12,2,2,13,3,0,0,0,0,0,0,0,0],"split_type":[0,0,0,0,0,0,0,0,0,0,0,0,0,0,0],"sum_hessian":[3.754E3,3.504E3,2.5E2,2.677E3,8.27E2,2.46E2,4E0,6.6E1,2.611E3,7E0,8.2E2,1.28E2,1.18E2,1E0,3E0],"tree_param":{"num_deleted":"0","num_feature":"19","num_nodes":"15","size_leaf_vector":"1"}},{"base_weights":[-1.9671982E-3,-6.5785505E-2,1.2378587E-2,-2.1294478E-1,-9.775162E-3,3.4445565E-2,-3.321541E-2,-2.6122695E-2,-5.974486E-3,-1.4582529E-3,1.6657086E-2,3.1026923E-3,-6.0260185E-4,2.1024675E-3,-5.2384622E-3],"categories":[],"categories_nodes":[],"categories_segments":[],"categories_sizes":[],"default_left":[0,0,0,0,0,0,0,0,0,0,0,0,0,0,0],"id":83,"left_children":[1,3,5,7,9,11,13,-1,-1,-1,-1,-1,-1,-1,-1],"loss_changes":[3.4569163E0,5.7099304E0,3.1030173E0,5.462283E0,3.3542247E0,2.6683156E0,5.4222007E0,0E0,0E0,0E0,0E0,0E0,0E0,0E0,0E0],"parents":[2147483647,0,0,1,1,2,2,3,3,4,4,5,5,6,6],"right_children":[2,4,6,8,10,12,14,-1,-1,-1,-1,-1,-1,-1,-1],"split_conditions":[1E0,1E0,3E0,9E1,2.018E3,3E0,2E0,-2.6122695E-2,-5.974486E-3,-1.4582529E-3,1.6657086E-2,3.1026923E-3,-6.0260185E-4,2.1024675E-3,-5.2384622E-3],"split_indices":[16,7,16,6,2,5,11,0,0,0,0,0,0,0,0],"split_type":[0,0,0,0,0,0,0,0,0,0,0,0,0,0,0],"sum_hessian":[3.774E3,6.92E2,3.082E3,1.9E2,5.02E2,2.077E3,1.005E3,4.3E1,1.47E2,4.76E2,2.6E1,1.303E3,7.74E2,4.9E2,5.15E2],"tree_param":{"num_deleted":"0","num_feature":"19","num_nodes":"15","size_leaf_vector":"1"}},{"base_weights":[-1.617718E-2,-3.4801173E-4,-9.712181E-2,-1.5915869E-2,9.1062255E-2,3.9658087E-1,-1.3171862E-1,-4.0566493E-3,8.103366E-4,7.0377463E-3,-5.380847E-3,4.0245685E-3,3.708533E-2,-1.6013563E-3,-1.697982E-2],"categories":[],"categories_nodes":[],"categories_segments":[],"categories_sizes":[],"default_left":[0,0,0,0,0,0,0,0,0,0,0,0,0,0,0],"id":84,"left_children":[1,3,5,7,9,11,13,-1,-1,-1,-1,-1,-1,-1,-1],"loss_changes":[4.7548194E0,4.4200563E0,1.0420122E1,5.561295E0,4.4776983E0,4.3039236E0,1.1760153E1,0E0,0E0,0E0,0E0,0E0,0E0,0E0,0E0],"parents":[2147483647,0,0,1,1,2,2,3,3,4,4,5,5,6,6],"right_children":[2,4,6,8,10,12,14,-1,-1,-1,-1,-1,-1,-1,-1],"split_conditions":[6.1E1,5.6E1,2E0,9E1,2E0,6.5E1,4.3E1,-4.0566493E-3,8.103366E-4,7.0377463E-3,-5.380847E-3,4.0245685E-3,3.708533E-2,-1.6013563E-3,-1.697982E-2],"split_indices":[3,3,5,6,0,3,12,0,0,0,0,0,0,0,0],"split_type":[0,0,0,0,0,0,0,0,0,0,0,0,0,0,0],"sum_hessian":[3.71E3,3.104E3,6.06E2,2.653E3,4.51E2,3.9E1,5.67E2,8.75E2,1.778E3,3.61E2,9E1,2.1E1,1.8E1,3.84E2,1.83E2],"tree_param":{"num_deleted":"0","num_feature":"19","num_nodes":"15","size_leaf_vector":"1"}},{"base_weights":[3.7657549E-3,-1.4417259E-2,4.8896283E-2,2.19512E-2,-6.524114E-2,2.2042975E-1,1.4573214E-2,-7.3960917E-3,1.6587543E-3,-7.6339254E-3,3.1832384E-4,-8.945441E-3,1.5627379E-2,-2.9186585E-3,4.593305E-3],"categories":[],"categories_nodes":[],"categories_segments":[],"categories_sizes":[],"default_left":[0,0,0,0,0,0,0,0,0,0,0,0,0,0,0],"id":85,"left_children":[1,3,5,7,9,11,13,-1,-1,-1,-1,-1,-1,-1,-1],"loss_changes":[3.0517294E0,4.9015045E0,6.2846956E0,2.9525661E0,6.9258385E0,6.603861E0,5.0290303E0,0E0,0E0,0E0,0E0,0E0,0E0,0E0,0E0],"parents":[2147483647,0,0,1,1,2,2,3,3,4,4,5,5,6,6],"right_children":[2,4,6,8,10,12,14,-1,-1,-1,-1,-1,-1,-1,-1],"split_conditions":[5.6E1,4.1E1,5.8E1,1E0,1E0,2.014E3,2E0,-7.3960917E-3,1.6587543E-3,-7.6339254E-3,3.1832384E-4,-8.945441E-3,1.5627379E-2,-2.9186585E-3,4.593305E-3],"split_indices":[3,3,3,11,4,2,10,0,0,0,0,0,0,0,0],"split_type":[0,0,0,0,0,0,0,0,0,0,0,0,0,0,0],"sum_hessian":[3.717E3,2.65E3,1.067E3,1.545E3,1.105E3,1.77E2,8.9E2,9.5E1,1.45E3,4.97E2,6.08E2,3.3E1,1.44E2,4.58E2,4.32E2],"tree_param":{"num_deleted":"0","num_feature":"19","num_nodes":"15","size_leaf_vector":"1"}},{"base_weights":[-2.6698336E-3,-3.6377184E-2,1.9062735E-2,1.2550579E-2,-8.708674E-2,-6.863741E-2,4.610232E-2,8.292247E-3,-1.7805623E-3,-7.1120025E-3,3.9734915E-3,-9.863501E-4,-1.1401097E-2,3.5961237E-2,2.1289992E-3],"categories":[],"categories_nodes":[],"categories_segments":[],"categories_sizes":[],"default_left":[0,0,0,0,0,0,0,0,0,0,0,0,0,0,0],"id":86,"left_children":[1,3,5,7,9,11,13,-1,-1,-1,-1,-1,-1,-1,-1],"loss_changes":[2.7433503E0,3.643355E0,5.402786E0,5.5283422E0,6.634515E0,4.181719E0,4.0972195E0,0E0,0E0,0E0,0E0,0E0,0E0,0E0,0E0],"parents":[2147483647,0,0,1,1,2,2,3,3,4,4,5,5,6,6],"right_children":[2,4,6,8,10,12,14,-1,-1,-1,-1,-1,-1,-1,-1],"split_conditions":[1E0,3.4E1,1E0,1E0,5.6E1,2.017E3,2E0,8.292247E-3,-1.7805623E-3,-7.1120025E-3,3.9734915E-3,-9.863501E-4,-1.1401097E-2,3.5961237E-2,2.1289992E-3],"split_indices":[14,12,13,15,12,2,13,0,0,0,0,0,0,0,0],"split_type":[0,0,0,0,0,0,0,0,0,0,0,0,0,0,0],"sum_hessian":[3.743E3,1.467E3,2.276E3,7.47E2,7.2E2,5.36E2,1.74E3,1.78E2,5.69E2,5.41E2,1.79E2,4.11E2,1.25E2,8E0,1.732E3],"tree_param":{"num_deleted":"0","num_feature":"19","num_nodes":"15","size_leaf_vector":"1"}},{"base_weights":[4.9418076E-3,-2.211559E-2,4.80013E-2,4.062141E-3,-1.6329707E-1,-4.042033E-2,1.2082418E-1,-7.165345E-3,1.7041315E-3,-1.080484E-2,6.3123046E-3,-1.237212E-2,7.058136E-4,2.545295E-3,9.234697E-3],"categories":[],"categories_nodes":[],"categories_segments":[],"categories_sizes":[],"default_left":[0,0,0,0,0,0,0,0,0,0,0,0,0,0,0],"id":87,"left_children":[1,3,5,7,9,11,13,-1,-1,-1,-1,-1,-1,-1,-1],"loss_changes":[4.3537927E0,8.482549E0,9.2900915E0,8.5743475E0,5.515602E0,7.3647556E0,3.5229378E0,0E0,0E0,0E0,0E0,0E0,0E0,0E0,0E0],"parents":[2147483647,0,0,1,1,2,2,3,3,4,4,5,5,6,6],"right_children":[2,4,6,8,10,12,14,-1,-1,-1,-1,-1,-1,-1,-1],"split_conditions":[3E0,6E1,1E0,1E0,6.9E1,2E0,3.2E1,-7.165345E-3,1.7041315E-3,-1.080484E-2,6.3123046E-3,-1.237212E-2,7.058136E-4,2.545295E-3,9.234697E-3],"split_indices":[10,3,4,16,3,15,12,0,0,0,0,0,0,0,0],"split_type":[0,0,0,0,0,0,0,0,0,0,0,0,0,0,0],"sum_hessian":[3.735E3,2.294E3,1.441E3,1.936E3,3.58E2,6.51E2,7.9E2,3.27E2,1.609E3,3.03E2,5.5E1,1.35E2,5.16E2,3.78E2,4.12E2],"tree_param":{"num_deleted":"0","num_feature":"19","num_nodes":"15","size_leaf_vector":"1"}},{"base_weights":[-7.7291895E-3,-2.8679652E-2,5.6726404E-2,-1.8957157E-2,-1.9847701E-1,5.879252E-3,1.8767945E-1,-3.2486767E-3,4.2770486E-4,1.4460921E-2,-1.4129392E-2,7.0642465E-4,